<?xml version="1.0"?>
<opencv_storage>
<cascade>
  <stageType>BOOST</stageType>
  <featureType>HAAR</featureType>
  <height>35</height>
  <width>25</width>
  <stageParams>
    <boostType>GAB</boostType>
    <minHitRate>9.9900001287460327e-01</minHitRate>
    <maxFalseAlarm>5.0000000000000000e-01</maxFalseAlarm>
    <weightTrimRate>9.4999999999999996e-01</weightTrimRate>
    <maxDepth>1</maxDepth>
    <maxWeakCount>100</maxWeakCount></stageParams>
  <featureParams>
    <maxCatCount>0</maxCatCount>
    <featSize>1</featSize>
    <mode>ALL</mode></featureParams>
  <stageNum>25</stageNum>
  <stages>
    <!-- stage 0 -->
    <_>
      <maxWeakCount>7</maxWeakCount>
      <stageThreshold>-1.4742066860198975e+00</stageThreshold>
      <weakClassifiers>
        <_>
          <internalNodes>
            0 -1 89 -5.0434627337381244e-04</internalNodes>
          <leafValues>
            7.8551530838012695e-01 -4.7071582078933716e-01</leafValues></_>
        <_>
          <internalNodes>
            0 -1 736 2.0169271738268435e-04</internalNodes>
          <leafValues>
            -3.5554376244544983e-01 8.0411052703857422e-01</leafValues></_>
        <_>
          <internalNodes>
            0 -1 55 2.7532957028597593e-04</internalNodes>
          <leafValues>
            -3.2460248470306396e-01 8.0765068531036377e-01</leafValues></_>
        <_>
          <internalNodes>
            0 -1 274 -4.1948186117224395e-04</internalNodes>
          <leafValues>
            6.6781806945800781e-01 -4.2453956604003906e-01</leafValues></_>
        <_>
          <internalNodes>
            0 -1 504 4.3210800504311919e-04</internalNodes>
          <leafValues>
            -3.3718261122703552e-01 7.8648036718368530e-01</leafValues></_>
        <_>
          <internalNodes>
            0 -1 78 -2.1052002557553351e-04</internalNodes>
          <leafValues>
            7.8300362825393677e-01 -3.2070782780647278e-01</leafValues></_>
        <_>
          <internalNodes>
            0 -1 56 2.2008008090779185e-04</internalNodes>
          <leafValues>
            -3.4462597966194153e-01 7.9882103204727173e-01</leafValues></_></weakClassifiers></_>
    <!-- stage 1 -->
    <_>
      <maxWeakCount>8</maxWeakCount>
      <stageThreshold>-8.8773065805435181e-01</stageThreshold>
      <weakClassifiers>
        <_>
          <internalNodes>
            0 -1 658 -1.5539844753220677e-05</internalNodes>
          <leafValues>
            7.6627218723297119e-01 -4.0248963236808777e-01</leafValues></_>
        <_>
          <internalNodes>
            0 -1 232 -2.9140627011656761e-03</internalNodes>
          <leafValues>
            5.9362494945526123e-01 -5.4062062501907349e-01</leafValues></_>
        <_>
          <internalNodes>
            0 -1 430 4.5368453720584512e-04</internalNodes>
          <leafValues>
            -4.2508405447006226e-01 6.3275372982025146e-01</leafValues></_>
        <_>
          <internalNodes>
            0 -1 728 -9.5743878046050668e-04</internalNodes>
          <leafValues>
            7.1995788812637329e-01 -3.7728232145309448e-01</leafValues></_>
        <_>
          <internalNodes>
            0 -1 731 6.8327470216900110e-04</internalNodes>
          <leafValues>
            -3.1769222021102905e-01 8.7407684326171875e-01</leafValues></_>
        <_>
          <internalNodes>
            0 -1 60 -2.9101111067575403e-05</internalNodes>
          <leafValues>
            7.7062380313873291e-01 -2.9028007388114929e-01</leafValues></_>
        <_>
          <internalNodes>
            0 -1 146 8.3286169683560729e-05</internalNodes>
          <leafValues>
            -2.6417610049247742e-01 8.1956666707992554e-01</leafValues></_>
        <_>
          <internalNodes>
            0 -1 495 -1.7395694158039987e-05</internalNodes>
          <leafValues>
            6.7205655574798584e-01 -3.6135894060134888e-01</leafValues></_></weakClassifiers></_>
    <!-- stage 2 -->
    <_>
      <maxWeakCount>9</maxWeakCount>
      <stageThreshold>-1.7337855100631714e+00</stageThreshold>
      <weakClassifiers>
        <_>
          <internalNodes>
            0 -1 766 1.6688831237843260e-05</internalNodes>
          <leafValues>
            -3.4718102216720581e-01 7.6470589637756348e-01</leafValues></_>
        <_>
          <internalNodes>
            0 -1 131 -1.9573919416870922e-05</internalNodes>
          <leafValues>
            7.0940482616424561e-01 -3.4441348910331726e-01</leafValues></_>
        <_>
          <internalNodes>
            0 -1 724 -4.2183281038887799e-04</internalNodes>
          <leafValues>
            7.3668116331100464e-01 -2.4975588917732239e-01</leafValues></_>
        <_>
          <internalNodes>
            0 -1 724 1.2892822269350290e-04</internalNodes>
          <leafValues>
            -3.4298315644264221e-01 7.3387926816940308e-01</leafValues></_>
        <_>
          <internalNodes>
            0 -1 100 2.2620934993028641e-02</internalNodes>
          <leafValues>
            -2.3439760506153107e-01 7.2995316982269287e-01</leafValues></_>
        <_>
          <internalNodes>
            0 -1 395 -2.1064377506263554e-05</internalNodes>
          <leafValues>
            5.2806186676025391e-01 -3.5649740695953369e-01</leafValues></_>
        <_>
          <internalNodes>
            0 -1 477 2.3977742239367217e-04</internalNodes>
          <leafValues>
            -2.8855541348457336e-01 6.3191175460815430e-01</leafValues></_>
        <_>
          <internalNodes>
            0 -1 350 -7.9943592936615460e-06</internalNodes>
          <leafValues>
            6.9899159669876099e-01 -2.2229729592800140e-01</leafValues></_>
        <_>
          <internalNodes>
            0 -1 350 1.7080725228879601e-05</internalNodes>
          <leafValues>
            -3.3414128422737122e-01 5.8175915479660034e-01</leafValues></_></weakClassifiers></_>
    <!-- stage 3 -->
    <_>
      <maxWeakCount>12</maxWeakCount>
      <stageThreshold>-1.1371157169342041e+00</stageThreshold>
      <weakClassifiers>
        <_>
          <internalNodes>
            0 -1 783 1.6139209037646651e-05</internalNodes>
          <leafValues>
            -3.4526315331459045e-01 6.6376811265945435e-01</leafValues></_>
        <_>
          <internalNodes>
            0 -1 125 -1.2843898730352521e-04</internalNodes>
          <leafValues>
            6.4814734458923340e-01 -3.0080845952033997e-01</leafValues></_>
        <_>
          <internalNodes>
            0 -1 649 -1.5786003132234327e-05</internalNodes>
          <leafValues>
            6.0635334253311157e-01 -2.7042302489280701e-01</leafValues></_>
        <_>
          <internalNodes>
            0 -1 649 1.5089720363903325e-05</internalNodes>
          <leafValues>
            -3.5175022482872009e-01 6.0078579187393188e-01</leafValues></_>
        <_>
          <internalNodes>
            0 -1 306 -4.7080501914024353e-02</internalNodes>
          <leafValues>
            3.8068655133247375e-01 -4.6179088950157166e-01</leafValues></_>
        <_>
          <internalNodes>
            0 -1 125 5.7750701671466231e-05</internalNodes>
          <leafValues>
            -3.1120645999908447e-01 5.6111681461334229e-01</leafValues></_>
        <_>
          <internalNodes>
            0 -1 679 1.5820922271814197e-05</internalNodes>
          <leafValues>
            -2.1009680628776550e-01 6.1843806505203247e-01</leafValues></_>
        <_>
          <internalNodes>
            0 -1 679 -1.7470392776886001e-05</internalNodes>
          <leafValues>
            6.0716533660888672e-01 -2.6746627688407898e-01</leafValues></_>
        <_>
          <internalNodes>
            0 -1 45 -3.6143567413091660e-03</internalNodes>
          <leafValues>
            4.9984678626060486e-01 -2.7887764573097229e-01</leafValues></_>
        <_>
          <internalNodes>
            0 -1 106 1.2321108952164650e-03</internalNodes>
          <leafValues>
            -2.7824336290359497e-01 5.9145367145538330e-01</leafValues></_>
        <_>
          <internalNodes>
            0 -1 443 1.2215445167385042e-04</internalNodes>
          <leafValues>
            -2.2700934112071991e-01 6.3811528682708740e-01</leafValues></_>
        <_>
          <internalNodes>
            0 -1 516 -2.7558577130548656e-05</internalNodes>
          <leafValues>
            5.4461801052093506e-01 -2.1677219867706299e-01</leafValues></_></weakClassifiers></_>
    <!-- stage 4 -->
    <_>
      <maxWeakCount>12</maxWeakCount>
      <stageThreshold>-9.6597480773925781e-01</stageThreshold>
      <weakClassifiers>
        <_>
          <internalNodes>
            0 -1 409 1.6292829968733713e-05</internalNodes>
          <leafValues>
            -2.9305136203765869e-01 6.5069550275802612e-01</leafValues></_>
        <_>
          <internalNodes>
            0 -1 132 -1.7825932445703074e-05</internalNodes>
          <leafValues>
            5.3198623657226562e-01 -3.0643668770790100e-01</leafValues></_>
        <_>
          <internalNodes>
            0 -1 463 -3.8931597373448312e-05</internalNodes>
          <leafValues>
            5.4499101638793945e-01 -3.2286575436592102e-01</leafValues></_>
        <_>
          <internalNodes>
            0 -1 463 1.6872156265890226e-05</internalNodes>
          <leafValues>
            -3.2595130801200867e-01 5.2806848287582397e-01</leafValues></_>
        <_>
          <internalNodes>
            0 -1 105 5.4791843285784125e-04</internalNodes>
          <leafValues>
            -2.9745787382125854e-01 5.7110655307769775e-01</leafValues></_>
        <_>
          <internalNodes>
            0 -1 95 -4.8010731115937233e-03</internalNodes>
          <leafValues>
            6.5349841117858887e-01 -2.3651267588138580e-01</leafValues></_>
        <_>
          <internalNodes>
            0 -1 733 3.1232445035129786e-03</internalNodes>
          <leafValues>
            -2.1044975519180298e-01 6.1505526304244995e-01</leafValues></_>
        <_>
          <internalNodes>
            0 -1 762 -4.7907800762914121e-05</internalNodes>
          <leafValues>
            6.4538758993148804e-01 -3.0526503920555115e-01</leafValues></_>
        <_>
          <internalNodes>
            0 -1 632 -8.2729296991601586e-05</internalNodes>
          <leafValues>
            5.5776965618133545e-01 -2.5621137022972107e-01</leafValues></_>
        <_>
          <internalNodes>
            0 -1 627 -7.1955000748857856e-05</internalNodes>
          <leafValues>
            5.7864922285079956e-01 -2.6734533905982971e-01</leafValues></_>
        <_>
          <internalNodes>
            0 -1 627 1.3861377374269068e-04</internalNodes>
          <leafValues>
            -3.1748428940773010e-01 6.1541873216629028e-01</leafValues></_>
        <_>
          <internalNodes>
            0 -1 318 -1.0719254350988194e-04</internalNodes>
          <leafValues>
            4.9922451376914978e-01 -3.3336713910102844e-01</leafValues></_></weakClassifiers></_>
    <!-- stage 5 -->
    <_>
      <maxWeakCount>14</maxWeakCount>
      <stageThreshold>-1.1834237575531006e+00</stageThreshold>
      <weakClassifiers>
        <_>
          <internalNodes>
            0 -1 68 -5.2782404236495495e-04</internalNodes>
          <leafValues>
            5.6818181276321411e-01 -2.8846153616905212e-01</leafValues></_>
        <_>
          <internalNodes>
            0 -1 780 1.2774813512805849e-04</internalNodes>
          <leafValues>
            -2.2582782804965973e-01 5.6827068328857422e-01</leafValues></_>
        <_>
          <internalNodes>
            0 -1 148 -1.3074639439582825e-01</internalNodes>
          <leafValues>
            3.7568455934524536e-01 -4.2071491479873657e-01</leafValues></_>
        <_>
          <internalNodes>
            0 -1 336 -3.1879899324849248e-05</internalNodes>
          <leafValues>
            5.5599582195281982e-01 -2.7557986974716187e-01</leafValues></_>
        <_>
          <internalNodes>
            0 -1 336 1.8470640497980639e-05</internalNodes>
          <leafValues>
            -3.3002793788909912e-01 5.5416345596313477e-01</leafValues></_>
        <_>
          <internalNodes>
            0 -1 757 3.8252188824117184e-04</internalNodes>
          <leafValues>
            -1.9139064848423004e-01 5.9329003095626831e-01</leafValues></_>
        <_>
          <internalNodes>
            0 -1 636 2.0340731134638190e-04</internalNodes>
          <leafValues>
            -1.7272773385047913e-01 6.1286503076553345e-01</leafValues></_>
        <_>
          <internalNodes>
            0 -1 747 -1.0981450323015451e-03</internalNodes>
          <leafValues>
            6.1971235275268555e-01 -2.0307672023773193e-01</leafValues></_>
        <_>
          <internalNodes>
            0 -1 578 -2.3713213158771396e-04</internalNodes>
          <leafValues>
            5.2698969841003418e-01 -2.3161189258098602e-01</leafValues></_>
        <_>
          <internalNodes>
            0 -1 209 3.8574115023948252e-05</internalNodes>
          <leafValues>
            -2.3942740261554718e-01 5.3673034906387329e-01</leafValues></_>
        <_>
          <internalNodes>
            0 -1 221 -7.7894707210361958e-03</internalNodes>
          <leafValues>
            4.8301848769187927e-01 -2.2050029039382935e-01</leafValues></_>
        <_>
          <internalNodes>
            0 -1 218 7.2290956974029541e-02</internalNodes>
          <leafValues>
            -2.0921175181865692e-01 6.0941207408905029e-01</leafValues></_>
        <_>
          <internalNodes>
            0 -1 227 -1.4224659651517868e-02</internalNodes>
          <leafValues>
            6.0380172729492188e-01 -1.9260622560977936e-01</leafValues></_>
        <_>
          <internalNodes>
            0 -1 655 -1.6889815015019849e-05</internalNodes>
          <leafValues>
            4.2793655395507812e-01 -2.5834345817565918e-01</leafValues></_></weakClassifiers></_>
    <!-- stage 6 -->
    <_>
      <maxWeakCount>11</maxWeakCount>
      <stageThreshold>-1.0839699506759644e+00</stageThreshold>
      <weakClassifiers>
        <_>
          <internalNodes>
            0 -1 117 -1.9467608071863651e-03</internalNodes>
          <leafValues>
            7.7816903591156006e-01 -2.9104477167129517e-01</leafValues></_>
        <_>
          <internalNodes>
            0 -1 103 2.2271873895078897e-03</internalNodes>
          <leafValues>
            -2.4598741531372070e-01 8.2840287685394287e-01</leafValues></_>
        <_>
          <internalNodes>
            0 -1 711 -2.0873106550425291e-03</internalNodes>
          <leafValues>
            7.6514267921447754e-01 -2.3186486959457397e-01</leafValues></_>
        <_>
          <internalNodes>
            0 -1 708 1.3948273845016956e-03</internalNodes>
          <leafValues>
            -3.4764805436134338e-01 7.2726792097091675e-01</leafValues></_>
        <_>
          <internalNodes>
            0 -1 91 -1.1970166815444827e-03</internalNodes>
          <leafValues>
            8.0114912986755371e-01 -1.6637498140335083e-01</leafValues></_>
        <_>
          <internalNodes>
            0 -1 263 -8.6891080718487501e-04</internalNodes>
          <leafValues>
            7.4504595994949341e-01 -2.1391813457012177e-01</leafValues></_>
        <_>
          <internalNodes>
            0 -1 582 -2.3644384054932743e-04</internalNodes>
          <leafValues>
            5.8600664138793945e-01 -2.9440683126449585e-01</leafValues></_>
        <_>
          <internalNodes>
            0 -1 266 1.5680547221563756e-04</internalNodes>
          <leafValues>
            -2.8574398159980774e-01 5.9016084671020508e-01</leafValues></_>
        <_>
          <internalNodes>
            0 -1 616 1.0452463757246733e-03</internalNodes>
          <leafValues>
            -1.8350580334663391e-01 6.8557870388031006e-01</leafValues></_>
        <_>
          <internalNodes>
            0 -1 613 -1.1128201149404049e-03</internalNodes>
          <leafValues>
            5.8402049541473389e-01 -2.8950160741806030e-01</leafValues></_>
        <_>
          <internalNodes>
            0 -1 357 1.5738991351099685e-05</internalNodes>
          <leafValues>
            -2.4389624595642090e-01 5.9694200754165649e-01</leafValues></_></weakClassifiers></_>
    <!-- stage 7 -->
    <_>
      <maxWeakCount>10</maxWeakCount>
      <stageThreshold>-1.5228400230407715e+00</stageThreshold>
      <weakClassifiers>
        <_>
          <internalNodes>
            0 -1 723 -2.1923070307821035e-03</internalNodes>
          <leafValues>
            6.8728524446487427e-01 -2.5519847869873047e-01</leafValues></_>
        <_>
          <internalNodes>
            0 -1 752 9.7323360387235880e-04</internalNodes>
          <leafValues>
            -1.8682736158370972e-01 7.2991907596588135e-01</leafValues></_>
        <_>
          <internalNodes>
            0 -1 102 -2.2051781415939331e-03</internalNodes>
          <leafValues>
            7.0385646820068359e-01 -2.0203997194766998e-01</leafValues></_>
        <_>
          <internalNodes>
            0 -1 99 3.5341326147317886e-03</internalNodes>
          <leafValues>
            -2.2239956259727478e-01 8.2012784481048584e-01</leafValues></_>
        <_>
          <internalNodes>
            0 -1 464 -9.7594852559268475e-04</internalNodes>
          <leafValues>
            4.9590963125228882e-01 -3.1797778606414795e-01</leafValues></_>
        <_>
          <internalNodes>
            0 -1 321 1.2805634178221226e-03</internalNodes>
          <leafValues>
            -2.4583822488784790e-01 6.7178452014923096e-01</leafValues></_>
        <_>
          <internalNodes>
            0 -1 319 -1.8106026109308004e-03</internalNodes>
          <leafValues>
            4.3944880366325378e-01 -3.2665103673934937e-01</leafValues></_>
        <_>
          <internalNodes>
            0 -1 594 6.8594538606703281e-04</internalNodes>
          <leafValues>
            -2.9658782482147217e-01 5.8983463048934937e-01</leafValues></_>
        <_>
          <internalNodes>
            0 -1 411 -1.0433327406644821e-03</internalNodes>
          <leafValues>
            5.4075324535369873e-01 -2.3262932896614075e-01</leafValues></_>
        <_>
          <internalNodes>
            0 -1 744 -1.7151765059679747e-03</internalNodes>
          <leafValues>
            5.7114142179489136e-01 -2.7921786904335022e-01</leafValues></_></weakClassifiers></_>
    <!-- stage 8 -->
    <_>
      <maxWeakCount>19</maxWeakCount>
      <stageThreshold>-1.3296051025390625e+00</stageThreshold>
      <weakClassifiers>
        <_>
          <internalNodes>
            0 -1 37 -3.7865750491619110e-02</internalNodes>
          <leafValues>
            4.6551725268363953e-01 -2.9951691627502441e-01</leafValues></_>
        <_>
          <internalNodes>
            0 -1 31 -7.0332817267626524e-04</internalNodes>
          <leafValues>
            6.1738407611846924e-01 -2.0219336450099945e-01</leafValues></_>
        <_>
          <internalNodes>
            0 -1 718 -3.3079069107770920e-03</internalNodes>
          <leafValues>
            5.9078544378280640e-01 -1.9424584507942200e-01</leafValues></_>
        <_>
          <internalNodes>
            0 -1 714 1.7424032557755709e-03</internalNodes>
          <leafValues>
            -2.8814846277236938e-01 5.1114356517791748e-01</leafValues></_>
        <_>
          <internalNodes>
            0 -1 35 6.6178978886455297e-04</internalNodes>
          <leafValues>
            -2.1210029721260071e-01 5.7921892404556274e-01</leafValues></_>
        <_>
          <internalNodes>
            0 -1 543 -1.8478250131011009e-02</internalNodes>
          <leafValues>
            4.7339233756065369e-01 -1.9846606254577637e-01</leafValues></_>
        <_>
          <internalNodes>
            0 -1 71 -2.0500337996054441e-04</internalNodes>
          <leafValues>
            4.3770775198936462e-01 -2.8653270006179810e-01</leafValues></_>
        <_>
          <internalNodes>
            0 -1 229 -4.4870632700622082e-04</internalNodes>
          <leafValues>
            5.2605181932449341e-01 -1.7713348567485809e-01</leafValues></_>
        <_>
          <internalNodes>
            0 -1 481 -3.4666740248212591e-05</internalNodes>
          <leafValues>
            4.3717879056930542e-01 -2.4347923696041107e-01</leafValues></_>
        <_>
          <internalNodes>
            0 -1 536 4.1759380837902427e-04</internalNodes>
          <leafValues>
            -2.4106420576572418e-01 4.1420337557792664e-01</leafValues></_>
        <_>
          <internalNodes>
            0 -1 367 -1.8371091573499143e-04</internalNodes>
          <leafValues>
            5.9074145555496216e-01 -1.3606582581996918e-01</leafValues></_>
        <_>
          <internalNodes>
            0 -1 405 -9.3217258108779788e-04</internalNodes>
          <leafValues>
            4.4162648916244507e-01 -2.2048820555210114e-01</leafValues></_>
        <_>
          <internalNodes>
            0 -1 435 1.2258772039785981e-03</internalNodes>
          <leafValues>
            -1.5952026844024658e-01 5.4081100225448608e-01</leafValues></_>
        <_>
          <internalNodes>
            0 -1 154 -1.6186778666451573e-03</internalNodes>
          <leafValues>
            4.5170405507087708e-01 -2.1772488951683044e-01</leafValues></_>
        <_>
          <internalNodes>
            0 -1 618 -4.0558632463216782e-04</internalNodes>
          <leafValues>
            4.4519802927970886e-01 -2.4004761874675751e-01</leafValues></_>
        <_>
          <internalNodes>
            0 -1 233 -4.2957730591297150e-02</internalNodes>
          <leafValues>
            4.0841001272201538e-01 -2.3604211211204529e-01</leafValues></_>
        <_>
          <internalNodes>
            0 -1 9 -1.1470730602741241e-01</internalNodes>
          <leafValues>
            6.4818418025970459e-01 -1.7720384895801544e-01</leafValues></_>
        <_>
          <internalNodes>
            0 -1 673 1.5414197696372867e-03</internalNodes>
          <leafValues>
            -1.7619894444942474e-01 5.2357780933380127e-01</leafValues></_>
        <_>
          <internalNodes>
            0 -1 734 -2.0315180881880224e-04</internalNodes>
          <leafValues>
            4.9913173913955688e-01 -2.0066864788532257e-01</leafValues></_></weakClassifiers></_>
    <!-- stage 9 -->
    <_>
      <maxWeakCount>18</maxWeakCount>
      <stageThreshold>-1.0797133445739746e+00</stageThreshold>
      <weakClassifiers>
        <_>
          <internalNodes>
            0 -1 189 -1.6554850339889526e-01</internalNodes>
          <leafValues>
            5.0663131475448608e-01 -2.8442436456680298e-01</leafValues></_>
        <_>
          <internalNodes>
            0 -1 90 1.9992082379758358e-03</internalNodes>
          <leafValues>
            -2.5375410914421082e-01 4.3722271919250488e-01</leafValues></_>
        <_>
          <internalNodes>
            0 -1 121 -2.8091103304177523e-03</internalNodes>
          <leafValues>
            4.2714044451713562e-01 -2.1524788439273834e-01</leafValues></_>
        <_>
          <internalNodes>
            0 -1 175 2.1073236130177975e-03</internalNodes>
          <leafValues>
            -2.2039361298084259e-01 4.6000909805297852e-01</leafValues></_>
        <_>
          <internalNodes>
            0 -1 257 -1.5417402610182762e-03</internalNodes>
          <leafValues>
            4.5591443777084351e-01 -2.5653159618377686e-01</leafValues></_>
        <_>
          <internalNodes>
            0 -1 66 -3.9611692773178220e-04</internalNodes>
          <leafValues>
            4.5034864544868469e-01 -1.4785262942314148e-01</leafValues></_>
        <_>
          <internalNodes>
            0 -1 342 9.9004688672721386e-04</internalNodes>
          <leafValues>
            -2.0587329566478729e-01 3.8364651799201965e-01</leafValues></_>
        <_>
          <internalNodes>
            0 -1 702 -1.5926180640235543e-04</internalNodes>
          <leafValues>
            4.2041796445846558e-01 -1.5877392888069153e-01</leafValues></_>
        <_>
          <internalNodes>
            0 -1 314 -7.8585803508758545e-02</internalNodes>
          <leafValues>
            3.5346770286560059e-01 -2.3501306772232056e-01</leafValues></_>
        <_>
          <internalNodes>
            0 -1 485 9.6224097069352865e-04</internalNodes>
          <leafValues>
            -1.8137057125568390e-01 4.4469189643859863e-01</leafValues></_>
        <_>
          <internalNodes>
            0 -1 260 -4.2909726500511169e-02</internalNodes>
          <leafValues>
            4.5866131782531738e-01 -1.9086769223213196e-01</leafValues></_>
        <_>
          <internalNodes>
            0 -1 23 -3.0066827312111855e-02</internalNodes>
          <leafValues>
            4.7943213582038879e-01 -1.4854569733142853e-01</leafValues></_>
        <_>
          <internalNodes>
            0 -1 497 3.8017774932086468e-03</internalNodes>
          <leafValues>
            -1.9197036325931549e-01 4.5394161343574524e-01</leafValues></_>
        <_>
          <internalNodes>
            0 -1 521 8.3674173802137375e-03</internalNodes>
          <leafValues>
            -1.6404712200164795e-01 5.3594809770584106e-01</leafValues></_>
        <_>
          <internalNodes>
            0 -1 537 -5.4267892846837640e-04</internalNodes>
          <leafValues>
            4.8052516579627991e-01 -1.6964152455329895e-01</leafValues></_>
        <_>
          <internalNodes>
            0 -1 697 3.5796046722680330e-04</internalNodes>
          <leafValues>
            -1.2800778448581696e-01 5.2797985076904297e-01</leafValues></_>
        <_>
          <internalNodes>
            0 -1 126 -1.2139268219470978e-03</internalNodes>
          <leafValues>
            3.3205369114875793e-01 -2.6820382475852966e-01</leafValues></_>
        <_>
          <internalNodes>
            0 -1 720 -3.7747279275208712e-03</internalNodes>
          <leafValues>
            4.8782113194465637e-01 -1.6857543587684631e-01</leafValues></_></weakClassifiers></_>
    <!-- stage 10 -->
    <_>
      <maxWeakCount>26</maxWeakCount>
      <stageThreshold>-1.5110099315643311e+00</stageThreshold>
      <weakClassifiers>
        <_>
          <internalNodes>
            0 -1 157 -3.3318856731057167e-03</internalNodes>
          <leafValues>
            4.2195123434066772e-01 -2.6341462135314941e-01</leafValues></_>
        <_>
          <internalNodes>
            0 -1 169 2.6772222481667995e-03</internalNodes>
          <leafValues>
            -2.1841837465763092e-01 4.4763478636741638e-01</leafValues></_>
        <_>
          <internalNodes>
            0 -1 415 1.5540787950158119e-02</internalNodes>
          <leafValues>
            -1.8976202607154846e-01 4.9799507856369019e-01</leafValues></_>
        <_>
          <internalNodes>
            0 -1 733 2.6921147946268320e-03</internalNodes>
          <leafValues>
            -2.8058335185050964e-01 3.2639211416244507e-01</leafValues></_>
        <_>
          <internalNodes>
            0 -1 201 -3.1680144369602203e-02</internalNodes>
          <leafValues>
            2.6189342141151428e-01 -3.3863741159439087e-01</leafValues></_>
        <_>
          <internalNodes>
            0 -1 144 -2.8726067394018173e-03</internalNodes>
          <leafValues>
            6.4350390434265137e-01 -9.7485117614269257e-02</leafValues></_>
        <_>
          <internalNodes>
            0 -1 599 -1.0606029536575079e-03</internalNodes>
          <leafValues>
            4.5912835001945496e-01 -1.8898288905620575e-01</leafValues></_>
        <_>
          <internalNodes>
            0 -1 486 -1.7610476352274418e-03</internalNodes>
          <leafValues>
            4.4789841771125793e-01 -1.8890342116355896e-01</leafValues></_>
        <_>
          <internalNodes>
            0 -1 387 -8.2774925976991653e-03</internalNodes>
          <leafValues>
            5.8055216073989868e-01 -1.3441042602062225e-01</leafValues></_>
        <_>
          <internalNodes>
            0 -1 361 7.1738874539732933e-03</internalNodes>
          <leafValues>
            -1.0760541260242462e-01 6.4545881748199463e-01</leafValues></_>
        <_>
          <internalNodes>
            0 -1 397 -5.7317974278703332e-04</internalNodes>
          <leafValues>
            3.7585553526878357e-01 -1.6382198035717010e-01</leafValues></_>
        <_>
          <internalNodes>
            0 -1 617 -3.9538349956274033e-03</internalNodes>
          <leafValues>
            4.5957195758819580e-01 -1.7770969867706299e-01</leafValues></_>
        <_>
          <internalNodes>
            0 -1 668 9.9797337315976620e-04</internalNodes>
          <leafValues>
            -9.8819188773632050e-02 5.6326824426651001e-01</leafValues></_>
        <_>
          <internalNodes>
            0 -1 365 -1.3943010708317161e-03</internalNodes>
          <leafValues>
            3.4485387802124023e-01 -2.1451555192470551e-01</leafValues></_>
        <_>
          <internalNodes>
            0 -1 467 -8.1254064571112394e-04</internalNodes>
          <leafValues>
            3.6684072017669678e-01 -2.0627209544181824e-01</leafValues></_>
        <_>
          <internalNodes>
            0 -1 43 -4.6418042620643973e-04</internalNodes>
          <leafValues>
            4.2182046175003052e-01 -1.7172598838806152e-01</leafValues></_>
        <_>
          <internalNodes>
            0 -1 515 -1.6934640705585480e-02</internalNodes>
          <leafValues>
            3.7026917934417725e-01 -2.2356039285659790e-01</leafValues></_>
        <_>
          <internalNodes>
            0 -1 16 3.2430566847324371e-02</internalNodes>
          <leafValues>
            -1.4359712600708008e-01 4.7068744897842407e-01</leafValues></_>
        <_>
          <internalNodes>
            0 -1 317 8.8157117366790771e-02</internalNodes>
          <leafValues>
            -1.1186474561691284e-01 8.0143988132476807e-01</leafValues></_>
        <_>
          <internalNodes>
            0 -1 61 -6.6957529634237289e-04</internalNodes>
          <leafValues>
            4.7862708568572998e-01 -1.3895085453987122e-01</leafValues></_>
        <_>
          <internalNodes>
            0 -1 349 -1.4618268469348550e-03</internalNodes>
          <leafValues>
            3.6598533391952515e-01 -1.8390284478664398e-01</leafValues></_>
        <_>
          <internalNodes>
            0 -1 769 -7.8707132488489151e-03</internalNodes>
          <leafValues>
            6.1986875534057617e-01 -1.0257113724946976e-01</leafValues></_>
        <_>
          <internalNodes>
            0 -1 220 -1.9766092300415039e-02</internalNodes>
          <leafValues>
            3.7309449911117554e-01 -2.0930783450603485e-01</leafValues></_>
        <_>
          <internalNodes>
            0 -1 727 -4.6849099453538656e-04</internalNodes>
          <leafValues>
            3.5425081849098206e-01 -1.9614015519618988e-01</leafValues></_>
        <_>
          <internalNodes>
            0 -1 529 1.3710659742355347e-01</internalNodes>
          <leafValues>
            -1.0432120412588120e-01 7.0492511987686157e-01</leafValues></_>
        <_>
          <internalNodes>
            0 -1 482 -8.6883170297369361e-04</internalNodes>
          <leafValues>
            3.9750733971595764e-01 -1.8324141204357147e-01</leafValues></_></weakClassifiers></_>
    <!-- stage 11 -->
    <_>
      <maxWeakCount>31</maxWeakCount>
      <stageThreshold>-1.3303041458129883e+00</stageThreshold>
      <weakClassifiers>
        <_>
          <internalNodes>
            0 -1 128 -3.2560789259150624e-04</internalNodes>
          <leafValues>
            4.1075795888900757e-01 -2.5060826539993286e-01</leafValues></_>
        <_>
          <internalNodes>
            0 -1 779 3.3419288229197264e-03</internalNodes>
          <leafValues>
            -1.6666783392429352e-01 4.7301188111305237e-01</leafValues></_>
        <_>
          <internalNodes>
            0 -1 334 2.2975273430347443e-01</internalNodes>
          <leafValues>
            -1.4290642738342285e-01 6.2087261676788330e-01</leafValues></_>
        <_>
          <internalNodes>
            0 -1 712 -2.5072559714317322e-02</internalNodes>
          <leafValues>
            4.1641110181808472e-01 -1.9062130153179169e-01</leafValues></_>
        <_>
          <internalNodes>
            0 -1 109 -7.5082555413246155e-03</internalNodes>
          <leafValues>
            4.1409274935722351e-01 -1.4435438811779022e-01</leafValues></_>
        <_>
          <internalNodes>
            0 -1 524 -4.0740566328167915e-03</internalNodes>
          <leafValues>
            3.8050967454910278e-01 -1.4644701778888702e-01</leafValues></_>
        <_>
          <internalNodes>
            0 -1 352 3.4012398682534695e-03</internalNodes>
          <leafValues>
            -1.6166882216930389e-01 3.9876836538314819e-01</leafValues></_>
        <_>
          <internalNodes>
            0 -1 619 -3.1239329837262630e-04</internalNodes>
          <leafValues>
            3.2681909203529358e-01 -1.8842205405235291e-01</leafValues></_>
        <_>
          <internalNodes>
            0 -1 168 -3.4396006958559155e-04</internalNodes>
          <leafValues>
            2.7185752987861633e-01 -1.9719232618808746e-01</leafValues></_>
        <_>
          <internalNodes>
            0 -1 25 -2.3578724265098572e-01</internalNodes>
          <leafValues>
            -8.3868074417114258e-01 5.4269310086965561e-02</leafValues></_>
        <_>
          <internalNodes>
            0 -1 153 7.7230355236679316e-04</internalNodes>
          <leafValues>
            -1.7875319719314575e-01 3.3317700028419495e-01</leafValues></_>
        <_>
          <internalNodes>
            0 -1 310 -1.3302136212587357e-02</internalNodes>
          <leafValues>
            2.3353737592697144e-01 -2.5446990132331848e-01</leafValues></_>
        <_>
          <internalNodes>
            0 -1 44 -3.5054265754297376e-04</internalNodes>
          <leafValues>
            4.0782213211059570e-01 -1.4103840291500092e-01</leafValues></_>
        <_>
          <internalNodes>
            0 -1 628 1.5076386742293835e-02</internalNodes>
          <leafValues>
            -1.2201096117496490e-01 4.4951647520065308e-01</leafValues></_>
        <_>
          <internalNodes>
            0 -1 500 -4.0271203033626080e-03</internalNodes>
          <leafValues>
            3.4996655583381653e-01 -1.7426033318042755e-01</leafValues></_>
        <_>
          <internalNodes>
            0 -1 459 -2.8009952511638403e-03</internalNodes>
          <leafValues>
            4.0063670277595520e-01 -1.4201986789703369e-01</leafValues></_>
        <_>
          <internalNodes>
            0 -1 234 -1.0771881788969040e-01</internalNodes>
          <leafValues>
            3.2743853330612183e-01 -1.6240507364273071e-01</leafValues></_>
        <_>
          <internalNodes>
            0 -1 416 5.5046367924660444e-04</internalNodes>
          <leafValues>
            -1.7494851350784302e-01 3.4127911925315857e-01</leafValues></_>
        <_>
          <internalNodes>
            0 -1 20 2.2422730922698975e-02</internalNodes>
          <leafValues>
            -1.6150413453578949e-01 3.2778665423393250e-01</leafValues></_>
        <_>
          <internalNodes>
            0 -1 501 4.6895807608962059e-03</internalNodes>
          <leafValues>
            -1.5342411398887634e-01 3.9153006672859192e-01</leafValues></_>
        <_>
          <internalNodes>
            0 -1 624 6.8018183810636401e-04</internalNodes>
          <leafValues>
            -1.9126504659652710e-01 3.0822542309761047e-01</leafValues></_>
        <_>
          <internalNodes>
            0 -1 107 -2.1107140928506851e-03</internalNodes>
          <leafValues>
            3.8229775428771973e-01 -1.1950436234474182e-01</leafValues></_>
        <_>
          <internalNodes>
            0 -1 302 -2.0020953379571438e-03</internalNodes>
          <leafValues>
            2.6089367270469666e-01 -1.9766102731227875e-01</leafValues></_>
        <_>
          <internalNodes>
            0 -1 82 8.4093329496681690e-04</internalNodes>
          <leafValues>
            9.8018653690814972e-02 -5.4262697696685791e-01</leafValues></_>
        <_>
          <internalNodes>
            0 -1 62 1.1573042720556259e-03</internalNodes>
          <leafValues>
            -1.4765505492687225e-01 3.9147648215293884e-01</leafValues></_>
        <_>
          <internalNodes>
            0 -1 418 9.8078267183154821e-04</internalNodes>
          <leafValues>
            -1.8338552117347717e-01 3.2032570242881775e-01</leafValues></_>
        <_>
          <internalNodes>
            0 -1 622 -1.4754503499716520e-03</internalNodes>
          <leafValues>
            3.8698405027389526e-01 -1.4789626002311707e-01</leafValues></_>
        <_>
          <internalNodes>
            0 -1 534 -1.7433631001040339e-03</internalNodes>
          <leafValues>
            3.1658387184143066e-01 -1.6843210160732269e-01</leafValues></_>
        <_>
          <internalNodes>
            0 -1 749 -1.0826283833011985e-03</internalNodes>
          <leafValues>
            5.3519284725189209e-01 -1.0466478765010834e-01</leafValues></_>
        <_>
          <internalNodes>
            0 -1 255 -6.1409078538417816e-02</internalNodes>
          <leafValues>
            5.6400799751281738e-01 -1.0235602408647537e-01</leafValues></_>
        <_>
          <internalNodes>
            0 -1 67 6.3319027423858643e-02</internalNodes>
          <leafValues>
            -7.5322277843952179e-02 6.6110187768936157e-01</leafValues></_></weakClassifiers></_>
    <!-- stage 12 -->
    <_>
      <maxWeakCount>27</maxWeakCount>
      <stageThreshold>-1.3311626911163330e+00</stageThreshold>
      <weakClassifiers>
        <_>
          <internalNodes>
            0 -1 677 5.1440894603729248e-03</internalNodes>
          <leafValues>
            -2.7272728085517883e-01 4.9799734354019165e-01</leafValues></_>
        <_>
          <internalNodes>
            0 -1 124 -8.5726729594171047e-04</internalNodes>
          <leafValues>
            3.7297931313514709e-01 -2.4981303513050079e-01</leafValues></_>
        <_>
          <internalNodes>
            0 -1 687 -1.3189592864364386e-03</internalNodes>
          <leafValues>
            4.9043208360671997e-01 -1.6319970786571503e-01</leafValues></_>
        <_>
          <internalNodes>
            0 -1 662 7.0087914355099201e-04</internalNodes>
          <leafValues>
            -2.7046647667884827e-01 3.1157448887825012e-01</leafValues></_>
        <_>
          <internalNodes>
            0 -1 519 2.8544003143906593e-03</internalNodes>
          <leafValues>
            -1.6801308095455170e-01 4.2373764514923096e-01</leafValues></_>
        <_>
          <internalNodes>
            0 -1 580 2.6187924668192863e-03</internalNodes>
          <leafValues>
            -8.3746284246444702e-02 5.6244868040084839e-01</leafValues></_>
        <_>
          <internalNodes>
            0 -1 541 -8.4534004330635071e-02</internalNodes>
          <leafValues>
            2.6720738410949707e-01 -2.5790080428123474e-01</leafValues></_>
        <_>
          <internalNodes>
            0 -1 238 -3.7563955411314964e-03</internalNodes>
          <leafValues>
            3.5606861114501953e-01 -2.0249854028224945e-01</leafValues></_>
        <_>
          <internalNodes>
            0 -1 215 1.5512207522988319e-02</internalNodes>
          <leafValues>
            -1.5700268745422363e-01 3.8278803229331970e-01</leafValues></_>
        <_>
          <internalNodes>
            0 -1 186 4.3556597083806992e-03</internalNodes>
          <leafValues>
            -1.4864364266395569e-01 4.2495509982109070e-01</leafValues></_>
        <_>
          <internalNodes>
            0 -1 292 3.8357838056981564e-03</internalNodes>
          <leafValues>
            -9.4963006675243378e-02 6.2764310836791992e-01</leafValues></_>
        <_>
          <internalNodes>
            0 -1 151 -1.0855526197701693e-03</internalNodes>
          <leafValues>
            4.0647584199905396e-01 -1.2866862118244171e-01</leafValues></_>
        <_>
          <internalNodes>
            0 -1 758 5.7279743487015367e-04</internalNodes>
          <leafValues>
            -2.2069326043128967e-01 2.7059346437454224e-01</leafValues></_>
        <_>
          <internalNodes>
            0 -1 635 3.5134083591401577e-03</internalNodes>
          <leafValues>
            -1.5933071076869965e-01 3.5320922732353210e-01</leafValues></_>
        <_>
          <internalNodes>
            0 -1 111 -7.2025775443762541e-04</internalNodes>
          <leafValues>
            3.7936145067214966e-01 -1.4444527029991150e-01</leafValues></_>
        <_>
          <internalNodes>
            0 -1 236 4.7410130500793457e-03</internalNodes>
          <leafValues>
            -2.5656133890151978e-01 2.5424197316169739e-01</leafValues></_>
        <_>
          <internalNodes>
            0 -1 772 -3.5830872366204858e-04</internalNodes>
          <leafValues>
            6.1451262235641479e-01 -1.1542303115129471e-01</leafValues></_>
        <_>
          <internalNodes>
            0 -1 450 -2.2567074745893478e-02</internalNodes>
          <leafValues>
            3.7863183021545410e-01 -1.3708630204200745e-01</leafValues></_>
        <_>
          <internalNodes>
            0 -1 156 -3.4142844378948212e-02</internalNodes>
          <leafValues>
            4.7890380024909973e-01 -1.0710384696722031e-01</leafValues></_>
        <_>
          <internalNodes>
            0 -1 406 -8.1302402541041374e-03</internalNodes>
          <leafValues>
            3.1756040453910828e-01 -1.6482000052928925e-01</leafValues></_>
        <_>
          <internalNodes>
            0 -1 491 -3.8988457527011633e-04</internalNodes>
          <leafValues>
            2.5443679094314575e-01 -2.3144701123237610e-01</leafValues></_>
        <_>
          <internalNodes>
            0 -1 748 3.0868183821439743e-03</internalNodes>
          <leafValues>
            -1.4918994903564453e-01 3.8090592622756958e-01</leafValues></_>
        <_>
          <internalNodes>
            0 -1 76 -1.3232306810095906e-04</internalNodes>
          <leafValues>
            2.9756724834442139e-01 -1.9489626586437225e-01</leafValues></_>
        <_>
          <internalNodes>
            0 -1 57 1.0627700947225094e-02</internalNodes>
          <leafValues>
            -1.2306652218103409e-01 5.3764820098876953e-01</leafValues></_>
        <_>
          <internalNodes>
            0 -1 672 -1.0570865124464035e-03</internalNodes>
          <leafValues>
            3.3952584862709045e-01 -1.7538644373416901e-01</leafValues></_>
        <_>
          <internalNodes>
            0 -1 197 2.0406868308782578e-02</internalNodes>
          <leafValues>
            1.2302373349666595e-01 -4.7427600622177124e-01</leafValues></_>
        <_>
          <internalNodes>
            0 -1 768 -4.4004985829815269e-04</internalNodes>
          <leafValues>
            -6.0944211483001709e-01 8.3686791360378265e-02</leafValues></_></weakClassifiers></_>
    <!-- stage 13 -->
    <_>
      <maxWeakCount>36</maxWeakCount>
      <stageThreshold>-1.1070214509963989e+00</stageThreshold>
      <weakClassifiers>
        <_>
          <internalNodes>
            0 -1 88 -8.5227185627445579e-04</internalNodes>
          <leafValues>
            3.2876712083816528e-01 -2.0680628716945648e-01</leafValues></_>
        <_>
          <internalNodes>
            0 -1 771 5.8025070466101170e-03</internalNodes>
          <leafValues>
            -1.3993330299854279e-01 4.6323487162590027e-01</leafValues></_>
        <_>
          <internalNodes>
            0 -1 187 6.0907527804374695e-03</internalNodes>
          <leafValues>
            -1.5453597903251648e-01 4.0485593676567078e-01</leafValues></_>
        <_>
          <internalNodes>
            0 -1 2 -5.2463426254689693e-03</internalNodes>
          <leafValues>
            4.0085792541503906e-01 -1.7217244207859039e-01</leafValues></_>
        <_>
          <internalNodes>
            0 -1 774 -6.8901048507541418e-04</internalNodes>
          <leafValues>
            3.9734593033790588e-01 -1.4620481431484222e-01</leafValues></_>
        <_>
          <internalNodes>
            0 -1 192 -8.0832996172830462e-04</internalNodes>
          <leafValues>
            3.1019970774650574e-01 -1.6582836210727692e-01</leafValues></_>
        <_>
          <internalNodes>
            0 -1 280 -2.0909073646180332e-04</internalNodes>
          <leafValues>
            4.8410350084304810e-01 -9.5532558858394623e-02</leafValues></_>
        <_>
          <internalNodes>
            0 -1 328 6.5851230174303055e-03</internalNodes>
          <leafValues>
            -1.6073366999626160e-01 3.5906317830085754e-01</leafValues></_>
        <_>
          <internalNodes>
            0 -1 568 4.1644909651950002e-04</internalNodes>
          <leafValues>
            -2.4121975898742676e-01 2.3224331438541412e-01</leafValues></_>
        <_>
          <internalNodes>
            0 -1 472 -1.3518736232072115e-03</internalNodes>
          <leafValues>
            2.8982222080230713e-01 -1.9707143306732178e-01</leafValues></_>
        <_>
          <internalNodes>
            0 -1 381 -3.7486391374841332e-04</internalNodes>
          <leafValues>
            3.6636343598365784e-01 -1.4536923170089722e-01</leafValues></_>
        <_>
          <internalNodes>
            0 -1 488 -2.1016043610870838e-03</internalNodes>
          <leafValues>
            3.3947944641113281e-01 -1.6333743929862976e-01</leafValues></_>
        <_>
          <internalNodes>
            0 -1 116 -2.0103134738747030e-04</internalNodes>
          <leafValues>
            4.1924980282783508e-01 -1.1580543220043182e-01</leafValues></_>
        <_>
          <internalNodes>
            0 -1 163 -3.1869893427938223e-04</internalNodes>
          <leafValues>
            2.2700732946395874e-01 -2.1524734795093536e-01</leafValues></_>
        <_>
          <internalNodes>
            0 -1 669 5.5097416043281555e-04</internalNodes>
          <leafValues>
            -1.1684344708919525e-01 4.4472822546958923e-01</leafValues></_>
        <_>
          <internalNodes>
            0 -1 327 6.5993219614028931e-03</internalNodes>
          <leafValues>
            -1.2904047966003418e-01 3.7440070509910583e-01</leafValues></_>
        <_>
          <internalNodes>
            0 -1 730 -4.4868586701340973e-04</internalNodes>
          <leafValues>
            6.2297368049621582e-01 -8.4120735526084900e-02</leafValues></_>
        <_>
          <internalNodes>
            0 -1 404 1.2612245045602322e-03</internalNodes>
          <leafValues>
            -1.2066549807786942e-01 3.6243924498558044e-01</leafValues></_>
        <_>
          <internalNodes>
            0 -1 581 -4.2772240703925490e-04</internalNodes>
          <leafValues>
            3.2032945752143860e-01 -1.6442023217678070e-01</leafValues></_>
        <_>
          <internalNodes>
            0 -1 514 -1.7866561393020675e-05</internalNodes>
          <leafValues>
            2.0867608487606049e-01 -2.4855317175388336e-01</leafValues></_>
        <_>
          <internalNodes>
            0 -1 586 -7.3034898377954960e-04</internalNodes>
          <leafValues>
            3.7198618054389954e-01 -1.2118846178054810e-01</leafValues></_>
        <_>
          <internalNodes>
            0 -1 114 -9.5814641099423170e-04</internalNodes>
          <leafValues>
            2.7099144458770752e-01 -1.9478240609169006e-01</leafValues></_>
        <_>
          <internalNodes>
            0 -1 517 -1.9476619854685850e-05</internalNodes>
          <leafValues>
            2.7910265326499939e-01 -1.8969383835792542e-01</leafValues></_>
        <_>
          <internalNodes>
            0 -1 340 3.1887877732515335e-02</internalNodes>
          <leafValues>
            7.5697757303714752e-02 -7.5526469945907593e-01</leafValues></_>
        <_>
          <internalNodes>
            0 -1 657 -1.1637380812317133e-03</internalNodes>
          <leafValues>
            3.3730214834213257e-01 -1.5996845066547394e-01</leafValues></_>
        <_>
          <internalNodes>
            0 -1 678 -6.9172662915661931e-04</internalNodes>
          <leafValues>
            2.8933116793632507e-01 -1.9716961681842804e-01</leafValues></_>
        <_>
          <internalNodes>
            0 -1 650 -1.9132984743919224e-04</internalNodes>
          <leafValues>
            2.6382881402969360e-01 -1.9658884406089783e-01</leafValues></_>
        <_>
          <internalNodes>
            0 -1 471 -5.4992558434605598e-03</internalNodes>
          <leafValues>
            4.3442782759666443e-01 -1.2576025724411011e-01</leafValues></_>
        <_>
          <internalNodes>
            0 -1 730 1.3976710033603013e-04</internalNodes>
          <leafValues>
            -1.4114500582218170e-01 3.3733797073364258e-01</leafValues></_>
        <_>
          <internalNodes>
            0 -1 17 2.8419094160199165e-03</internalNodes>
          <leafValues>
            -1.2966249883174896e-01 3.7741267681121826e-01</leafValues></_>
        <_>
          <internalNodes>
            0 -1 732 8.0800463911145926e-04</internalNodes>
          <leafValues>
            -1.4975422620773315e-01 3.4302827715873718e-01</leafValues></_>
        <_>
          <internalNodes>
            0 -1 305 -1.6478229081258178e-03</internalNodes>
          <leafValues>
            4.1229632496833801e-01 -1.1274538189172745e-01</leafValues></_>
        <_>
          <internalNodes>
            0 -1 390 -8.8480506092309952e-03</internalNodes>
          <leafValues>
            5.7445132732391357e-01 -7.6350875198841095e-02</leafValues></_>
        <_>
          <internalNodes>
            0 -1 786 8.9993598521687090e-05</internalNodes>
          <leafValues>
            -1.6380971670150757e-01 2.7899271249771118e-01</leafValues></_>
        <_>
          <internalNodes>
            0 -1 193 7.4445838108658791e-03</internalNodes>
          <leafValues>
            1.0881344228982925e-01 -4.6713018417358398e-01</leafValues></_>
        <_>
          <internalNodes>
            0 -1 285 -3.6940793506801128e-04</internalNodes>
          <leafValues>
            5.2445089817047119e-01 -1.0016494989395142e-01</leafValues></_></weakClassifiers></_>
    <!-- stage 14 -->
    <_>
      <maxWeakCount>42</maxWeakCount>
      <stageThreshold>-1.2503021955490112e+00</stageThreshold>
      <weakClassifiers>
        <_>
          <internalNodes>
            0 -1 703 -1.3365250197239220e-04</internalNodes>
          <leafValues>
            4.2699724435806274e-01 -1.9693654775619507e-01</leafValues></_>
        <_>
          <internalNodes>
            0 -1 110 -1.8599960207939148e-01</internalNodes>
          <leafValues>
            2.9991894960403442e-01 -2.1023496985435486e-01</leafValues></_>
        <_>
          <internalNodes>
            0 -1 42 -4.5812306925654411e-03</internalNodes>
          <leafValues>
            3.7399408221244812e-01 -1.5983445942401886e-01</leafValues></_>
        <_>
          <internalNodes>
            0 -1 584 -8.8037271052598953e-03</internalNodes>
          <leafValues>
            -6.7615485191345215e-01 6.1927165836095810e-02</leafValues></_>
        <_>
          <internalNodes>
            0 -1 434 -2.8943290817551315e-04</internalNodes>
          <leafValues>
            4.5769184827804565e-01 -1.0545874387025833e-01</leafValues></_>
        <_>
          <internalNodes>
            0 -1 523 -8.3013181574642658e-04</internalNodes>
          <leafValues>
            2.7975067496299744e-01 -1.8755741417407990e-01</leafValues></_>
        <_>
          <internalNodes>
            0 -1 83 -1.4846171325189061e-05</internalNodes>
          <leafValues>
            2.8177326917648315e-01 -1.8024100363254547e-01</leafValues></_>
        <_>
          <internalNodes>
            0 -1 659 -1.0716260876506567e-03</internalNodes>
          <leafValues>
            -5.0328457355499268e-01 7.3849238455295563e-02</leafValues></_>
        <_>
          <internalNodes>
            0 -1 410 -3.5439280327409506e-04</internalNodes>
          <leafValues>
            2.8743129968643188e-01 -1.6181059181690216e-01</leafValues></_>
        <_>
          <internalNodes>
            0 -1 606 2.0159363746643066e-02</internalNodes>
          <leafValues>
            -8.1812731921672821e-02 4.9487009644508362e-01</leafValues></_>
        <_>
          <internalNodes>
            0 -1 604 -2.5574243627488613e-03</internalNodes>
          <leafValues>
            1.8158727884292603e-01 -3.0136626958847046e-01</leafValues></_>
        <_>
          <internalNodes>
            0 -1 422 -5.0464464584365487e-04</internalNodes>
          <leafValues>
            2.0712180435657501e-01 -2.1547371149063110e-01</leafValues></_>
        <_>
          <internalNodes>
            0 -1 596 4.2263884097337723e-03</internalNodes>
          <leafValues>
            -1.6233430802822113e-01 2.9727214574813843e-01</leafValues></_>
        <_>
          <internalNodes>
            0 -1 208 -1.3264617882668972e-03</internalNodes>
          <leafValues>
            3.6016923189163208e-01 -1.0660666972398758e-01</leafValues></_>
        <_>
          <internalNodes>
            0 -1 719 -6.9407379487529397e-04</internalNodes>
          <leafValues>
            3.1889161467552185e-01 -1.2709276378154755e-01</leafValues></_>
        <_>
          <internalNodes>
            0 -1 273 1.4754292368888855e-01</internalNodes>
          <leafValues>
            -5.4320529103279114e-02 7.1988052129745483e-01</leafValues></_>
        <_>
          <internalNodes>
            0 -1 85 -2.0811387803405523e-03</internalNodes>
          <leafValues>
            2.6161241531372070e-01 -1.5493719279766083e-01</leafValues></_>
        <_>
          <internalNodes>
            0 -1 510 2.4744069203734398e-02</internalNodes>
          <leafValues>
            8.9374080300331116e-02 -4.7282731533050537e-01</leafValues></_>
        <_>
          <internalNodes>
            0 -1 383 1.9470632541924715e-03</internalNodes>
          <leafValues>
            -1.1275673657655716e-01 3.7305831909179688e-01</leafValues></_>
        <_>
          <internalNodes>
            0 -1 6 1.9595449790358543e-02</internalNodes>
          <leafValues>
            -1.3409040868282318e-01 3.1503883004188538e-01</leafValues></_>
        <_>
          <internalNodes>
            0 -1 644 -1.0299140214920044e-01</internalNodes>
          <leafValues>
            4.0510210394859314e-01 -1.1348602920770645e-01</leafValues></_>
        <_>
          <internalNodes>
            0 -1 567 4.2416858486831188e-03</internalNodes>
          <leafValues>
            -1.1583618074655533e-01 4.1337710618972778e-01</leafValues></_>
        <_>
          <internalNodes>
            0 -1 423 1.9485589291434735e-05</internalNodes>
          <leafValues>
            -1.5891377627849579e-01 2.7482029795646667e-01</leafValues></_>
        <_>
          <internalNodes>
            0 -1 715 8.7088542059063911e-03</internalNodes>
          <leafValues>
            -8.0100275576114655e-02 5.2485549449920654e-01</leafValues></_>
        <_>
          <internalNodes>
            0 -1 442 -2.5272765196859837e-03</internalNodes>
          <leafValues>
            -3.6957034468650818e-01 1.1783674359321594e-01</leafValues></_>
        <_>
          <internalNodes>
            0 -1 555 -3.1046464573591948e-04</internalNodes>
          <leafValues>
            3.4359231591224670e-01 -1.2568525969982147e-01</leafValues></_>
        <_>
          <internalNodes>
            0 -1 449 -1.6551781445741653e-02</internalNodes>
          <leafValues>
            3.0352008342742920e-01 -1.4077776670455933e-01</leafValues></_>
        <_>
          <internalNodes>
            0 -1 92 1.8414412438869476e-01</internalNodes>
          <leafValues>
            -9.8796643316745758e-02 4.7548544406890869e-01</leafValues></_>
        <_>
          <internalNodes>
            0 -1 741 2.8383912285789847e-04</internalNodes>
          <leafValues>
            -1.7757642269134521e-01 2.6004672050476074e-01</leafValues></_>
        <_>
          <internalNodes>
            0 -1 563 2.2908926010131836e-02</internalNodes>
          <leafValues>
            -9.0470515191555023e-02 4.6181729435920715e-01</leafValues></_>
        <_>
          <internalNodes>
            0 -1 123 4.7840306069701910e-04</internalNodes>
          <leafValues>
            -1.6188332438468933e-01 2.5662189722061157e-01</leafValues></_>
        <_>
          <internalNodes>
            0 -1 315 -1.4962337445467710e-03</internalNodes>
          <leafValues>
            2.0190465450286865e-01 -2.0586711168289185e-01</leafValues></_>
        <_>
          <internalNodes>
            0 -1 710 -1.5159216709434986e-03</internalNodes>
          <leafValues>
            2.6306903362274170e-01 -1.5806414186954498e-01</leafValues></_>
        <_>
          <internalNodes>
            0 -1 427 5.6921050418168306e-04</internalNodes>
          <leafValues>
            -1.6026073694229126e-01 2.7890273928642273e-01</leafValues></_>
        <_>
          <internalNodes>
            0 -1 64 -2.0466456771828234e-04</internalNodes>
          <leafValues>
            2.7821862697601318e-01 -1.5759609639644623e-01</leafValues></_>
        <_>
          <internalNodes>
            0 -1 27 -4.9741743132472038e-03</internalNodes>
          <leafValues>
            2.7582347393035889e-01 -1.3999271392822266e-01</leafValues></_>
        <_>
          <internalNodes>
            0 -1 112 3.4421088639646769e-04</internalNodes>
          <leafValues>
            -1.5302200615406036e-01 3.1914034485816956e-01</leafValues></_>
        <_>
          <internalNodes>
            0 -1 446 9.8557166755199432e-02</internalNodes>
          <leafValues>
            -1.0277436673641205e-01 3.9936390519142151e-01</leafValues></_>
        <_>
          <internalNodes>
            0 -1 224 -5.3140614181756973e-04</internalNodes>
          <leafValues>
            3.0414995551109314e-01 -1.4493708312511444e-01</leafValues></_>
        <_>
          <internalNodes>
            0 -1 553 -1.3538299754145555e-05</internalNodes>
          <leafValues>
            2.4298527836799622e-01 -1.6635905206203461e-01</leafValues></_>
        <_>
          <internalNodes>
            0 -1 735 -9.4040448311716318e-04</internalNodes>
          <leafValues>
            2.5313305854797363e-01 -1.6521157324314117e-01</leafValues></_>
        <_>
          <internalNodes>
            0 -1 172 -2.7424263954162598e-01</internalNodes>
          <leafValues>
            4.2441514134407043e-01 -1.0298046469688416e-01</leafValues></_></weakClassifiers></_>
    <!-- stage 15 -->
    <_>
      <maxWeakCount>45</maxWeakCount>
      <stageThreshold>-1.1106755733489990e+00</stageThreshold>
      <weakClassifiers>
        <_>
          <internalNodes>
            0 -1 737 2.6880769291892648e-04</internalNodes>
          <leafValues>
            -2.0942407846450806e-01 3.3105021715164185e-01</leafValues></_>
        <_>
          <internalNodes>
            0 -1 289 -9.1843248810619116e-05</internalNodes>
          <leafValues>
            2.5814184546470642e-01 -2.0313899219036102e-01</leafValues></_>
        <_>
          <internalNodes>
            0 -1 173 3.4991806745529175e-01</internalNodes>
          <leafValues>
            -1.2565803527832031e-01 4.4091865420341492e-01</leafValues></_>
        <_>
          <internalNodes>
            0 -1 52 -7.3714554309844971e-04</internalNodes>
          <leafValues>
            2.9509878158569336e-01 -1.8777060508728027e-01</leafValues></_>
        <_>
          <internalNodes>
            0 -1 36 4.2355600744485855e-03</internalNodes>
          <leafValues>
            -1.0948120802640915e-01 4.1338527202606201e-01</leafValues></_>
        <_>
          <internalNodes>
            0 -1 113 8.2690315321087837e-04</internalNodes>
          <leafValues>
            -1.4853811264038086e-01 2.8001549839973450e-01</leafValues></_>
        <_>
          <internalNodes>
            0 -1 759 -8.2365248817950487e-04</internalNodes>
          <leafValues>
            3.9483478665351868e-01 -1.2214082479476929e-01</leafValues></_>
        <_>
          <internalNodes>
            0 -1 496 -1.5609082765877247e-05</internalNodes>
          <leafValues>
            2.7487534284591675e-01 -1.4093625545501709e-01</leafValues></_>
        <_>
          <internalNodes>
            0 -1 645 -7.5622147414833307e-04</internalNodes>
          <leafValues>
            2.8342244029045105e-01 -1.7001031339168549e-01</leafValues></_>
        <_>
          <internalNodes>
            0 -1 475 -9.2179432511329651e-02</internalNodes>
          <leafValues>
            -8.3942931890487671e-01 5.1583301275968552e-02</leafValues></_>
        <_>
          <internalNodes>
            0 -1 135 1.0612315963953733e-03</internalNodes>
          <leafValues>
            5.9250347316265106e-02 -6.3171148300170898e-01</leafValues></_>
        <_>
          <internalNodes>
            0 -1 356 -3.3222702331840992e-03</internalNodes>
          <leafValues>
            2.3623633384704590e-01 -1.7207992076873779e-01</leafValues></_>
        <_>
          <internalNodes>
            0 -1 354 6.1306673160288483e-05</internalNodes>
          <leafValues>
            -2.0176999270915985e-01 2.3173035681247711e-01</leafValues></_>
        <_>
          <internalNodes>
            0 -1 291 6.7800818942487240e-04</internalNodes>
          <leafValues>
            1.0294228047132492e-01 -4.6124225854873657e-01</leafValues></_>
        <_>
          <internalNodes>
            0 -1 746 2.9646721668541431e-03</internalNodes>
          <leafValues>
            -1.1312306672334671e-01 3.8584148883819580e-01</leafValues></_>
        <_>
          <internalNodes>
            0 -1 750 8.2757824566215277e-04</internalNodes>
          <leafValues>
            -1.2638810276985168e-01 2.8069195151329041e-01</leafValues></_>
        <_>
          <internalNodes>
            0 -1 181 -8.7318778038024902e-02</internalNodes>
          <leafValues>
            4.4669663906097412e-01 -9.8487503826618195e-02</leafValues></_>
        <_>
          <internalNodes>
            0 -1 48 -2.4082578718662262e-02</internalNodes>
          <leafValues>
            3.1670445203781128e-01 -1.3882885873317719e-01</leafValues></_>
        <_>
          <internalNodes>
            0 -1 250 7.3140170425176620e-03</internalNodes>
          <leafValues>
            -1.1582953482866287e-01 3.6769691109657288e-01</leafValues></_>
        <_>
          <internalNodes>
            0 -1 287 -6.3025276176631451e-04</internalNodes>
          <leafValues>
            2.5917166471481323e-01 -1.7434734106063843e-01</leafValues></_>
        <_>
          <internalNodes>
            0 -1 253 8.5815123748034239e-04</internalNodes>
          <leafValues>
            -1.8740014731884003e-01 2.4377676844596863e-01</leafValues></_>
        <_>
          <internalNodes>
            0 -1 309 1.4876043424010277e-02</internalNodes>
          <leafValues>
            -1.1059682071208954e-01 4.0236109495162964e-01</leafValues></_>
        <_>
          <internalNodes>
            0 -1 533 -2.2751033306121826e-02</internalNodes>
          <leafValues>
            3.2964283227920532e-01 -1.2002568691968918e-01</leafValues></_>
        <_>
          <internalNodes>
            0 -1 561 -4.3019314762204885e-04</internalNodes>
          <leafValues>
            2.5922539830207825e-01 -1.4256680011749268e-01</leafValues></_>
        <_>
          <internalNodes>
            0 -1 629 -6.2307983636856079e-02</internalNodes>
          <leafValues>
            3.3558475971221924e-01 -1.1897353827953339e-01</leafValues></_>
        <_>
          <internalNodes>
            0 -1 665 3.7808068096637726e-02</internalNodes>
          <leafValues>
            -1.1614670604467392e-01 4.5262247323989868e-01</leafValues></_>
        <_>
          <internalNodes>
            0 -1 460 -2.2448773961514235e-03</internalNodes>
          <leafValues>
            2.9039308428764343e-01 -1.3010501861572266e-01</leafValues></_>
        <_>
          <internalNodes>
            0 -1 276 4.3394643580541015e-04</internalNodes>
          <leafValues>
            -1.4752271771430969e-01 2.8425258398056030e-01</leafValues></_>
        <_>
          <internalNodes>
            0 -1 167 -9.6025067614391446e-04</internalNodes>
          <leafValues>
            -4.2114299535751343e-01 1.0200916230678558e-01</leafValues></_>
        <_>
          <internalNodes>
            0 -1 386 1.0867158416658640e-03</internalNodes>
          <leafValues>
            5.5960781872272491e-02 -5.7943803071975708e-01</leafValues></_>
        <_>
          <internalNodes>
            0 -1 165 2.6196677936241031e-04</internalNodes>
          <leafValues>
            -1.3180714845657349e-01 3.0486896634101868e-01</leafValues></_>
        <_>
          <internalNodes>
            0 -1 761 3.9690285921096802e-03</internalNodes>
          <leafValues>
            -9.7722977399826050e-02 4.0818735957145691e-01</leafValues></_>
        <_>
          <internalNodes>
            0 -1 41 -8.1056333146989346e-04</internalNodes>
          <leafValues>
            1.9701351225376129e-01 -1.8813641369342804e-01</leafValues></_>
        <_>
          <internalNodes>
            0 -1 0 2.7316133491694927e-03</internalNodes>
          <leafValues>
            -1.6659408807754517e-01 2.4003282189369202e-01</leafValues></_>
        <_>
          <internalNodes>
            0 -1 21 -4.1315183043479919e-03</internalNodes>
          <leafValues>
            2.9858228564262390e-01 -1.3992510735988617e-01</leafValues></_>
        <_>
          <internalNodes>
            0 -1 398 1.6885461518540978e-03</internalNodes>
          <leafValues>
            -1.2540908157825470e-01 3.3099952340126038e-01</leafValues></_>
        <_>
          <internalNodes>
            0 -1 583 -8.7736267596483231e-04</internalNodes>
          <leafValues>
            -5.1870620250701904e-01 8.7842173874378204e-02</leafValues></_>
        <_>
          <internalNodes>
            0 -1 278 5.7453056797385216e-05</internalNodes>
          <leafValues>
            -2.2671496868133545e-01 1.8479982018470764e-01</leafValues></_>
        <_>
          <internalNodes>
            0 -1 609 2.6996739325113595e-04</internalNodes>
          <leafValues>
            -1.5632392466068268e-01 2.4296621978282928e-01</leafValues></_>
        <_>
          <internalNodes>
            0 -1 237 4.1588151361793280e-04</internalNodes>
          <leafValues>
            -1.1436017602682114e-01 3.3120477199554443e-01</leafValues></_>
        <_>
          <internalNodes>
            0 -1 203 9.6770562231540680e-04</internalNodes>
          <leafValues>
            -9.8212473094463348e-02 3.6239913105964661e-01</leafValues></_>
        <_>
          <internalNodes>
            0 -1 136 -5.6969644501805305e-03</internalNodes>
          <leafValues>
            -8.5570257902145386e-01 4.4708404690027237e-02</leafValues></_>
        <_>
          <internalNodes>
            0 -1 392 -5.2732555195689201e-04</internalNodes>
          <leafValues>
            1.7492979764938354e-01 -2.2260527312755585e-01</leafValues></_>
        <_>
          <internalNodes>
            0 -1 199 1.6938605112954974e-03</internalNodes>
          <leafValues>
            -1.4095464348793030e-01 2.5956752896308899e-01</leafValues></_>
        <_>
          <internalNodes>
            0 -1 258 1.6620433330535889e-01</internalNodes>
          <leafValues>
            -6.8754814565181732e-02 5.5145096778869629e-01</leafValues></_></weakClassifiers></_>
    <!-- stage 16 -->
    <_>
      <maxWeakCount>44</maxWeakCount>
      <stageThreshold>-1.0958321094512939e+00</stageThreshold>
      <weakClassifiers>
        <_>
          <internalNodes>
            0 -1 527 6.6368968691676855e-04</internalNodes>
          <leafValues>
            -1.3247863948345184e-01 3.6079546809196472e-01</leafValues></_>
        <_>
          <internalNodes>
            0 -1 374 -1.5520363114774227e-02</internalNodes>
          <leafValues>
            2.9431858658790588e-01 -1.6954556107521057e-01</leafValues></_>
        <_>
          <internalNodes>
            0 -1 683 -8.5887196473777294e-04</internalNodes>
          <leafValues>
            -4.9838379025459290e-01 9.9600955843925476e-02</leafValues></_>
        <_>
          <internalNodes>
            0 -1 79 -4.5257571036927402e-04</internalNodes>
          <leafValues>
            2.3512060940265656e-01 -2.2983404994010925e-01</leafValues></_>
        <_>
          <internalNodes>
            0 -1 300 1.0391329973936081e-01</internalNodes>
          <leafValues>
            -1.3470289111137390e-01 3.9368057250976562e-01</leafValues></_>
        <_>
          <internalNodes>
            0 -1 243 1.1854009330272675e-01</internalNodes>
          <leafValues>
            -9.6423737704753876e-02 7.0841658115386963e-01</leafValues></_>
        <_>
          <internalNodes>
            0 -1 142 -2.0371361169964075e-03</internalNodes>
          <leafValues>
            2.9556775093078613e-01 -1.2973496317863464e-01</leafValues></_>
        <_>
          <internalNodes>
            0 -1 368 1.0265810415148735e-03</internalNodes>
          <leafValues>
            -1.7185172438621521e-01 2.8503894805908203e-01</leafValues></_>
        <_>
          <internalNodes>
            0 -1 217 -6.4958799630403519e-03</internalNodes>
          <leafValues>
            2.6329040527343750e-01 -1.7296211421489716e-01</leafValues></_>
        <_>
          <internalNodes>
            0 -1 492 -4.7408178448677063e-02</internalNodes>
          <leafValues>
            2.1349951624870300e-01 -2.1906228363513947e-01</leafValues></_>
        <_>
          <internalNodes>
            0 -1 149 1.8955843988806009e-03</internalNodes>
          <leafValues>
            -1.3380236923694611e-01 2.9066544771194458e-01</leafValues></_>
        <_>
          <internalNodes>
            0 -1 775 2.6019092183560133e-04</internalNodes>
          <leafValues>
            -1.8200288712978363e-01 2.2338955104351044e-01</leafValues></_>
        <_>
          <internalNodes>
            0 -1 739 -1.9406320527195930e-02</internalNodes>
          <leafValues>
            4.0892773866653442e-01 -9.8166234791278839e-02</leafValues></_>
        <_>
          <internalNodes>
            0 -1 207 2.7449848130345345e-03</internalNodes>
          <leafValues>
            -9.9914111196994781e-02 4.0875014662742615e-01</leafValues></_>
        <_>
          <internalNodes>
            0 -1 384 1.7422590404748917e-02</internalNodes>
          <leafValues>
            -8.3875343203544617e-02 4.7900837659835815e-01</leafValues></_>
        <_>
          <internalNodes>
            0 -1 281 6.5153772011399269e-03</internalNodes>
          <leafValues>
            1.0014533996582031e-01 -4.1982945799827576e-01</leafValues></_>
        <_>
          <internalNodes>
            0 -1 641 2.6082879048772156e-04</internalNodes>
          <leafValues>
            9.2572979629039764e-02 -4.1799876093864441e-01</leafValues></_>
        <_>
          <internalNodes>
            0 -1 205 1.3440217589959502e-03</internalNodes>
          <leafValues>
            -1.2020508199930191e-01 3.1521177291870117e-01</leafValues></_>
        <_>
          <internalNodes>
            0 -1 262 -3.7818119744770229e-04</internalNodes>
          <leafValues>
            2.7918058633804321e-01 -1.3112801313400269e-01</leafValues></_>
        <_>
          <internalNodes>
            0 -1 717 1.4969469048082829e-03</internalNodes>
          <leafValues>
            -1.3710398972034454e-01 3.1958779692649841e-01</leafValues></_>
        <_>
          <internalNodes>
            0 -1 15 3.6818861961364746e-02</internalNodes>
          <leafValues>
            -1.1625272780656815e-01 3.8409006595611572e-01</leafValues></_>
        <_>
          <internalNodes>
            0 -1 726 -1.6953012673184276e-03</internalNodes>
          <leafValues>
            2.9633527994155884e-01 -1.3382659852504730e-01</leafValues></_>
        <_>
          <internalNodes>
            0 -1 557 2.5840380112640560e-04</internalNodes>
          <leafValues>
            -1.5416552126407623e-01 2.5078153610229492e-01</leafValues></_>
        <_>
          <internalNodes>
            0 -1 290 3.8206559838727117e-04</internalNodes>
          <leafValues>
            5.4702017456293106e-02 -6.2328171730041504e-01</leafValues></_>
        <_>
          <internalNodes>
            0 -1 433 3.7539522163569927e-03</internalNodes>
          <leafValues>
            -1.1164638400077820e-01 3.3470612764358521e-01</leafValues></_>
        <_>
          <internalNodes>
            0 -1 240 -5.4596923291683197e-04</internalNodes>
          <leafValues>
            2.2133865952491760e-01 -1.7276997864246368e-01</leafValues></_>
        <_>
          <internalNodes>
            0 -1 692 1.1383981909602880e-03</internalNodes>
          <leafValues>
            -1.4517007768154144e-01 2.4399550259113312e-01</leafValues></_>
        <_>
          <internalNodes>
            0 -1 437 1.4592750929296017e-02</internalNodes>
          <leafValues>
            5.6165385991334915e-02 -7.8756201267242432e-01</leafValues></_>
        <_>
          <internalNodes>
            0 -1 526 1.2762836413457990e-03</internalNodes>
          <leafValues>
            -1.2958616018295288e-01 3.4521016478538513e-01</leafValues></_>
        <_>
          <internalNodes>
            0 -1 421 -1.4536122325807810e-03</internalNodes>
          <leafValues>
            2.9342365264892578e-01 -1.2150555104017258e-01</leafValues></_>
        <_>
          <internalNodes>
            0 -1 507 9.4386935234069824e-04</internalNodes>
          <leafValues>
            -1.5780249238014221e-01 2.6216077804565430e-01</leafValues></_>
        <_>
          <internalNodes>
            0 -1 615 -2.8067328967154026e-03</internalNodes>
          <leafValues>
            3.0343934893608093e-01 -1.1670569330453873e-01</leafValues></_>
        <_>
          <internalNodes>
            0 -1 642 -5.8565754443407059e-04</internalNodes>
          <leafValues>
            -5.0366437435150146e-01 6.8940028548240662e-02</leafValues></_>
        <_>
          <internalNodes>
            0 -1 445 6.2344320118427277e-02</internalNodes>
          <leafValues>
            -8.4893107414245605e-02 4.1834798455238342e-01</leafValues></_>
        <_>
          <internalNodes>
            0 -1 256 2.0643076859414577e-03</internalNodes>
          <leafValues>
            -1.8276090919971466e-01 2.3425097763538361e-01</leafValues></_>
        <_>
          <internalNodes>
            0 -1 195 -1.3760505244135857e-02</internalNodes>
          <leafValues>
            -6.4803528785705566e-01 6.4828142523765564e-02</leafValues></_>
        <_>
          <internalNodes>
            0 -1 353 -1.2044382747262716e-03</internalNodes>
          <leafValues>
            2.7591776847839355e-01 -1.2660662829875946e-01</leafValues></_>
        <_>
          <internalNodes>
            0 -1 323 -6.5281167626380920e-03</internalNodes>
          <leafValues>
            -6.3992643356323242e-01 5.3689733147621155e-02</leafValues></_>
        <_>
          <internalNodes>
            0 -1 13 2.3540318012237549e-02</internalNodes>
          <leafValues>
            -1.1879027634859085e-01 2.8916653990745544e-01</leafValues></_>
        <_>
          <internalNodes>
            0 -1 222 -6.0404599935282022e-05</internalNodes>
          <leafValues>
            1.9641482830047607e-01 -1.8420702219009399e-01</leafValues></_>
        <_>
          <internalNodes>
            0 -1 666 1.9580174237489700e-02</internalNodes>
          <leafValues>
            -1.3024616241455078e-01 2.6354587078094482e-01</leafValues></_>
        <_>
          <internalNodes>
            0 -1 648 -9.7789324354380369e-04</internalNodes>
          <leafValues>
            4.3037942051887512e-01 -9.0842939913272858e-02</leafValues></_>
        <_>
          <internalNodes>
            0 -1 360 2.1319751976989210e-04</internalNodes>
          <leafValues>
            -1.3406871259212494e-01 2.5499635934829712e-01</leafValues></_>
        <_>
          <internalNodes>
            0 -1 704 -3.4870783565565944e-05</internalNodes>
          <leafValues>
            -2.7143278717994690e-01 1.3299268484115601e-01</leafValues></_></weakClassifiers></_>
    <!-- stage 17 -->
    <_>
      <maxWeakCount>51</maxWeakCount>
      <stageThreshold>-1.0510931015014648e+00</stageThreshold>
      <weakClassifiers>
        <_>
          <internalNodes>
            0 -1 777 3.0135784763842821e-03</internalNodes>
          <leafValues>
            -1.1967545747756958e-01 3.7920489907264709e-01</leafValues></_>
        <_>
          <internalNodes>
            0 -1 29 -1.2323114275932312e-01</internalNodes>
          <leafValues>
            2.7076524496078491e-01 -1.8294920027256012e-01</leafValues></_>
        <_>
          <internalNodes>
            0 -1 19 1.9352164864540100e-01</internalNodes>
          <leafValues>
            -1.0039363801479340e-01 4.4275915622711182e-01</leafValues></_>
        <_>
          <internalNodes>
            0 -1 326 4.0624778717756271e-02</internalNodes>
          <leafValues>
            -1.6684776544570923e-01 3.8727691769599915e-01</leafValues></_>
        <_>
          <internalNodes>
            0 -1 721 1.1859952937811613e-03</internalNodes>
          <leafValues>
            -1.0728229582309723e-01 3.3115875720977783e-01</leafValues></_>
        <_>
          <internalNodes>
            0 -1 778 -4.6412844676524401e-04</internalNodes>
          <leafValues>
            3.5254916548728943e-01 -1.2504674494266510e-01</leafValues></_>
        <_>
          <internalNodes>
            0 -1 77 -4.3745743460021913e-04</internalNodes>
          <leafValues>
            2.8047135472297668e-01 -1.4879275858402252e-01</leafValues></_>
        <_>
          <internalNodes>
            0 -1 167 2.8215292841196060e-03</internalNodes>
          <leafValues>
            6.8215280771255493e-02 -5.2242684364318848e-01</leafValues></_>
        <_>
          <internalNodes>
            0 -1 249 -9.8751008044928312e-04</internalNodes>
          <leafValues>
            2.8148308396339417e-01 -1.3068588078022003e-01</leafValues></_>
        <_>
          <internalNodes>
            0 -1 407 -2.1838550455868244e-03</internalNodes>
          <leafValues>
            2.9556930065155029e-01 -1.2034315615892410e-01</leafValues></_>
        <_>
          <internalNodes>
            0 -1 792 -1.8105346243828535e-03</internalNodes>
          <leafValues>
            -4.4641768932342529e-01 7.5079232454299927e-02</leafValues></_>
        <_>
          <internalNodes>
            0 -1 362 2.5942426174879074e-02</internalNodes>
          <leafValues>
            -9.2481821775436401e-02 4.0943875908851624e-01</leafValues></_>
        <_>
          <internalNodes>
            0 -1 588 4.2566400952637196e-04</internalNodes>
          <leafValues>
            -1.4508414268493652e-01 2.6784941554069519e-01</leafValues></_>
        <_>
          <internalNodes>
            0 -1 184 -6.3715219497680664e-02</internalNodes>
          <leafValues>
            -5.1479852199554443e-01 6.8731360137462616e-02</leafValues></_>
        <_>
          <internalNodes>
            0 -1 559 3.2414804445579648e-04</internalNodes>
          <leafValues>
            -1.4963439106941223e-01 2.5612717866897583e-01</leafValues></_>
        <_>
          <internalNodes>
            0 -1 311 1.7578002298250794e-03</internalNodes>
          <leafValues>
            8.7515674531459808e-02 -3.8542205095291138e-01</leafValues></_>
        <_>
          <internalNodes>
            0 -1 558 -6.4625107916072011e-04</internalNodes>
          <leafValues>
            2.4573802947998047e-01 -1.3498742878437042e-01</leafValues></_>
        <_>
          <internalNodes>
            0 -1 346 -9.2225172556936741e-04</internalNodes>
          <leafValues>
            1.8680149316787720e-01 -1.9257132709026337e-01</leafValues></_>
        <_>
          <internalNodes>
            0 -1 400 -1.8711771816015244e-02</internalNodes>
          <leafValues>
            3.3473142981529236e-01 -1.0363742709159851e-01</leafValues></_>
        <_>
          <internalNodes>
            0 -1 166 1.6329467762261629e-03</internalNodes>
          <leafValues>
            6.9679975509643555e-02 -5.6440222263336182e-01</leafValues></_>
        <_>
          <internalNodes>
            0 -1 399 -3.0378964729607105e-03</internalNodes>
          <leafValues>
            2.4898084998130798e-01 -1.4290127158164978e-01</leafValues></_>
        <_>
          <internalNodes>
            0 -1 402 1.5186243690550327e-03</internalNodes>
          <leafValues>
            -1.0491996258497238e-01 3.0929496884346008e-01</leafValues></_>
        <_>
          <internalNodes>
            0 -1 211 -5.0127878785133362e-04</internalNodes>
          <leafValues>
            2.2004967927932739e-01 -1.5787182748317719e-01</leafValues></_>
        <_>
          <internalNodes>
            0 -1 579 1.0168954730033875e-02</internalNodes>
          <leafValues>
            -6.6010586917400360e-02 5.7055777311325073e-01</leafValues></_>
        <_>
          <internalNodes>
            0 -1 118 -3.5295773297548294e-02</internalNodes>
          <leafValues>
            2.5975945591926575e-01 -1.9177876412868500e-01</leafValues></_>
        <_>
          <internalNodes>
            0 -1 179 -1.2715390184894204e-03</internalNodes>
          <leafValues>
            2.5222471356391907e-01 -1.3634721934795380e-01</leafValues></_>
        <_>
          <internalNodes>
            0 -1 538 -1.3491408899426460e-03</internalNodes>
          <leafValues>
            2.2149930894374847e-01 -1.6575445234775543e-01</leafValues></_>
        <_>
          <internalNodes>
            0 -1 716 -1.9752373918890953e-03</internalNodes>
          <leafValues>
            3.8808983564376831e-01 -1.0364278405904770e-01</leafValues></_>
        <_>
          <internalNodes>
            0 -1 101 1.2572854757308960e-01</internalNodes>
          <leafValues>
            -1.0754346847534180e-01 3.2746353745460510e-01</leafValues></_>
        <_>
          <internalNodes>
            0 -1 535 4.5325994142331183e-04</internalNodes>
          <leafValues>
            -1.5229567885398865e-01 2.6635622978210449e-01</leafValues></_>
        <_>
          <internalNodes>
            0 -1 141 8.9920841157436371e-02</internalNodes>
          <leafValues>
            7.3900841176509857e-02 -4.9367856979370117e-01</leafValues></_>
        <_>
          <internalNodes>
            0 -1 420 1.0903920046985149e-03</internalNodes>
          <leafValues>
            -1.4055307209491730e-01 2.4346670508384705e-01</leafValues></_>
        <_>
          <internalNodes>
            0 -1 370 -1.8524888437241316e-03</internalNodes>
          <leafValues>
            2.7281072735786438e-01 -1.5743938088417053e-01</leafValues></_>
        <_>
          <internalNodes>
            0 -1 614 7.1400947868824005e-02</internalNodes>
          <leafValues>
            -1.0857035964727402e-01 3.0598980188369751e-01</leafValues></_>
        <_>
          <internalNodes>
            0 -1 593 -5.1752906292676926e-03</internalNodes>
          <leafValues>
            -6.4080834388732910e-01 6.9509081542491913e-02</leafValues></_>
        <_>
          <internalNodes>
            0 -1 213 2.1375627256929874e-03</internalNodes>
          <leafValues>
            -1.2362483143806458e-01 2.8403261303901672e-01</leafValues></_>
        <_>
          <internalNodes>
            0 -1 707 -5.9552518650889397e-03</internalNodes>
          <leafValues>
            -5.4957062005996704e-01 6.2617354094982147e-02</leafValues></_>
        <_>
          <internalNodes>
            0 -1 84 -5.2108842646703124e-04</internalNodes>
          <leafValues>
            -4.6405938267707825e-01 6.9668516516685486e-02</leafValues></_>
        <_>
          <internalNodes>
            0 -1 150 9.4689447432756424e-03</internalNodes>
          <leafValues>
            5.3521726280450821e-02 -5.3959792852401733e-01</leafValues></_>
        <_>
          <internalNodes>
            0 -1 379 1.6334467800334096e-03</internalNodes>
          <leafValues>
            -1.1096607893705368e-01 2.9342010617256165e-01</leafValues></_>
        <_>
          <internalNodes>
            0 -1 709 -4.1402732022106647e-03</internalNodes>
          <leafValues>
            -7.9178982973098755e-01 4.3744489550590515e-02</leafValues></_>
        <_>
          <internalNodes>
            0 -1 773 -7.5635209213942289e-04</internalNodes>
          <leafValues>
            4.2582559585571289e-01 -7.9931139945983887e-02</leafValues></_>
        <_>
          <internalNodes>
            0 -1 32 -1.8826450686901808e-03</internalNodes>
          <leafValues>
            2.1868208050727844e-01 -1.5375788509845734e-01</leafValues></_>
        <_>
          <internalNodes>
            0 -1 277 1.1881957761943340e-03</internalNodes>
          <leafValues>
            -1.6902759671211243e-01 1.8778003752231598e-01</leafValues></_>
        <_>
          <internalNodes>
            0 -1 284 1.7041179817169905e-03</internalNodes>
          <leafValues>
            -1.1033731698989868e-01 2.8050065040588379e-01</leafValues></_>
        <_>
          <internalNodes>
            0 -1 791 1.9362552557140589e-03</internalNodes>
          <leafValues>
            3.7128698080778122e-02 -8.8215035200119019e-01</leafValues></_>
        <_>
          <internalNodes>
            0 -1 461 1.5075082774274051e-04</internalNodes>
          <leafValues>
            -1.3873852789402008e-01 2.4462175369262695e-01</leafValues></_>
        <_>
          <internalNodes>
            0 -1 489 2.5014147162437439e-02</internalNodes>
          <leafValues>
            8.6415186524391174e-02 -3.6790564656257629e-01</leafValues></_>
        <_>
          <internalNodes>
            0 -1 602 -5.5203504860401154e-02</internalNodes>
          <leafValues>
            8.7260198593139648e-01 -4.3388713151216507e-02</leafValues></_>
        <_>
          <internalNodes>
            0 -1 457 1.3501779176294804e-03</internalNodes>
          <leafValues>
            -1.5189731121063232e-01 2.2221525013446808e-01</leafValues></_>
        <_>
          <internalNodes>
            0 -1 226 -2.5577232008799911e-04</internalNodes>
          <leafValues>
            2.4559426307678223e-01 -1.3308486342430115e-01</leafValues></_></weakClassifiers></_>
    <!-- stage 18 -->
    <_>
      <maxWeakCount>57</maxWeakCount>
      <stageThreshold>-1.0330393314361572e+00</stageThreshold>
      <weakClassifiers>
        <_>
          <internalNodes>
            0 -1 58 -4.9666911363601685e-03</internalNodes>
          <leafValues>
            3.1529411673545837e-01 -1.7468354105949402e-01</leafValues></_>
        <_>
          <internalNodes>
            0 -1 145 5.5257603526115417e-02</internalNodes>
          <leafValues>
            -1.1367298662662506e-01 4.5316925644874573e-01</leafValues></_>
        <_>
          <internalNodes>
            0 -1 638 1.5376822557300329e-03</internalNodes>
          <leafValues>
            -2.0475660264492035e-01 1.7674870789051056e-01</leafValues></_>
        <_>
          <internalNodes>
            0 -1 363 -1.2570206308737397e-03</internalNodes>
          <leafValues>
            1.7441099882125854e-01 -1.9149729609489441e-01</leafValues></_>
        <_>
          <internalNodes>
            0 -1 265 -2.9232755303382874e-02</internalNodes>
          <leafValues>
            1.9995069503784180e-01 -1.7621475458145142e-01</leafValues></_>
        <_>
          <internalNodes>
            0 -1 403 -2.0031835883855820e-02</internalNodes>
          <leafValues>
            5.2013599872589111e-01 -4.6953421086072922e-02</leafValues></_>
        <_>
          <internalNodes>
            0 -1 550 -5.3775329142808914e-02</internalNodes>
          <leafValues>
            -7.6443052291870117e-01 6.6629782319068909e-02</leafValues></_>
        <_>
          <internalNodes>
            0 -1 371 -3.3417576923966408e-04</internalNodes>
          <leafValues>
            2.2203126549720764e-01 -1.6140943765640259e-01</leafValues></_>
        <_>
          <internalNodes>
            0 -1 214 2.8782051056623459e-02</internalNodes>
          <leafValues>
            7.4150010943412781e-02 -6.6216367483139038e-01</leafValues></_>
        <_>
          <internalNodes>
            0 -1 38 -1.8444376764819026e-03</internalNodes>
          <leafValues>
            3.0900326371192932e-01 -9.8373286426067352e-02</leafValues></_>
        <_>
          <internalNodes>
            0 -1 44 7.7404623152688146e-04</internalNodes>
          <leafValues>
            -9.5918878912925720e-02 3.8634750247001648e-01</leafValues></_>
        <_>
          <internalNodes>
            0 -1 358 9.5852788945194334e-05</internalNodes>
          <leafValues>
            9.9472790956497192e-02 -3.2575365900993347e-01</leafValues></_>
        <_>
          <internalNodes>
            0 -1 670 6.9266157224774361e-03</internalNodes>
          <leafValues>
            4.8203453421592712e-02 -5.5842715501785278e-01</leafValues></_>
        <_>
          <internalNodes>
            0 -1 324 -1.2562992051243782e-03</internalNodes>
          <leafValues>
            2.2272843122482300e-01 -1.3623954355716705e-01</leafValues></_>
        <_>
          <internalNodes>
            0 -1 247 2.6402040384709835e-03</internalNodes>
          <leafValues>
            -9.5312468707561493e-02 2.9170382022857666e-01</leafValues></_>
        <_>
          <internalNodes>
            0 -1 686 5.6729231029748917e-02</internalNodes>
          <leafValues>
            -8.5607066750526428e-02 3.4716725349426270e-01</leafValues></_>
        <_>
          <internalNodes>
            0 -1 667 1.0471751913428307e-02</internalNodes>
          <leafValues>
            -9.0667881071567535e-02 3.4182399511337280e-01</leafValues></_>
        <_>
          <internalNodes>
            0 -1 713 -3.6593214608728886e-03</internalNodes>
          <leafValues>
            2.0545846223831177e-01 -1.5463477373123169e-01</leafValues></_>
        <_>
          <internalNodes>
            0 -1 303 -6.7059576511383057e-02</internalNodes>
          <leafValues>
            5.7913708686828613e-01 -5.0250895321369171e-02</leafValues></_>
        <_>
          <internalNodes>
            0 -1 505 2.7625495567917824e-04</internalNodes>
          <leafValues>
            -1.6613061726093292e-01 2.0899088680744171e-01</leafValues></_>
        <_>
          <internalNodes>
            0 -1 473 7.6147483196109533e-04</internalNodes>
          <leafValues>
            -1.5162971615791321e-01 1.9715137779712677e-01</leafValues></_>
        <_>
          <internalNodes>
            0 -1 591 9.8751150071620941e-03</internalNodes>
          <leafValues>
            5.6495841592550278e-02 -4.9650102853775024e-01</leafValues></_>
        <_>
          <internalNodes>
            0 -1 355 -4.8820376396179199e-03</internalNodes>
          <leafValues>
            2.4353519082069397e-01 -1.4088150858879089e-01</leafValues></_>
        <_>
          <internalNodes>
            0 -1 458 6.7075537517666817e-03</internalNodes>
          <leafValues>
            -6.2983229756355286e-02 5.5480432510375977e-01</leafValues></_>
        <_>
          <internalNodes>
            0 -1 57 1.0918504558503628e-02</internalNodes>
          <leafValues>
            -7.8601606190204620e-02 3.7968173623085022e-01</leafValues></_>
        <_>
          <internalNodes>
            0 -1 566 -3.1318776309490204e-03</internalNodes>
          <leafValues>
            -4.9658641219139099e-01 6.6944964230060577e-02</leafValues></_>
        <_>
          <internalNodes>
            0 -1 545 1.6781140118837357e-02</internalNodes>
          <leafValues>
            3.4905765205621719e-02 -8.3773028850555420e-01</leafValues></_>
        <_>
          <internalNodes>
            0 -1 429 -9.1984514147043228e-03</internalNodes>
          <leafValues>
            2.5790306925773621e-01 -1.2678356468677521e-01</leafValues></_>
        <_>
          <internalNodes>
            0 -1 282 5.7187648490071297e-03</internalNodes>
          <leafValues>
            -1.0407874733209610e-01 2.9249224066734314e-01</leafValues></_>
        <_>
          <internalNodes>
            0 -1 630 9.3626102898269892e-04</internalNodes>
          <leafValues>
            -1.0690490156412125e-01 3.0650779604911804e-01</leafValues></_>
        <_>
          <internalNodes>
            0 -1 569 -3.8736821152269840e-03</internalNodes>
          <leafValues>
            1.7779864370822906e-01 -1.8204812705516815e-01</leafValues></_>
        <_>
          <internalNodes>
            0 -1 28 1.8953857943415642e-02</internalNodes>
          <leafValues>
            -1.2834882736206055e-01 2.9835176467895508e-01</leafValues></_>
        <_>
          <internalNodes>
            0 -1 185 -2.3793919011950493e-02</internalNodes>
          <leafValues>
            -5.9174263477325439e-01 5.9476099908351898e-02</leafValues></_>
        <_>
          <internalNodes>
            0 -1 331 -2.6870390865951777e-03</internalNodes>
          <leafValues>
            2.8430610895156860e-01 -1.2395026534795761e-01</leafValues></_>
        <_>
          <internalNodes>
            0 -1 216 1.2144746724516153e-03</internalNodes>
          <leafValues>
            -1.4752694964408875e-01 2.9015719890594482e-01</leafValues></_>
        <_>
          <internalNodes>
            0 -1 86 -1.6551872249692678e-05</internalNodes>
          <leafValues>
            1.9909268617630005e-01 -1.5191890299320221e-01</leafValues></_>
        <_>
          <internalNodes>
            0 -1 698 3.9375387132167816e-03</internalNodes>
          <leafValues>
            -7.6315283775329590e-02 4.5953759551048279e-01</leafValues></_>
        <_>
          <internalNodes>
            0 -1 96 4.3539474718272686e-03</internalNodes>
          <leafValues>
            -1.4445546269416809e-01 2.2728197276592255e-01</leafValues></_>
        <_>
          <internalNodes>
            0 -1 293 -1.2899606488645077e-02</internalNodes>
          <leafValues>
            -6.9457060098648071e-01 5.4575160145759583e-02</leafValues></_>
        <_>
          <internalNodes>
            0 -1 143 1.1382789351046085e-02</internalNodes>
          <leafValues>
            3.2144278287887573e-02 -7.5920754671096802e-01</leafValues></_>
        <_>
          <internalNodes>
            0 -1 502 1.2806577142328024e-03</internalNodes>
          <leafValues>
            -9.9459320306777954e-02 3.5279136896133423e-01</leafValues></_>
        <_>
          <internalNodes>
            0 -1 312 1.0828999429941177e-01</internalNodes>
          <leafValues>
            -3.6534667015075684e-02 7.6022011041641235e-01</leafValues></_>
        <_>
          <internalNodes>
            0 -1 633 4.0113064460456371e-03</internalNodes>
          <leafValues>
            -2.0493106544017792e-01 1.7768040299415588e-01</leafValues></_>
        <_>
          <internalNodes>
            0 -1 394 8.9266598224639893e-03</internalNodes>
          <leafValues>
            -1.1769045144319534e-01 2.8121262788772583e-01</leafValues></_>
        <_>
          <internalNodes>
            0 -1 575 8.0222780525218695e-06</internalNodes>
          <leafValues>
            -1.5704067051410675e-01 2.1140187978744507e-01</leafValues></_>
        <_>
          <internalNodes>
            0 -1 130 -8.8745905086398125e-03</internalNodes>
          <leafValues>
            2.2739963233470917e-01 -1.4152298867702484e-01</leafValues></_>
        <_>
          <internalNodes>
            0 -1 700 1.4685470378026366e-03</internalNodes>
          <leafValues>
            -1.3928803801536560e-01 2.6315090060234070e-01</leafValues></_>
        <_>
          <internalNodes>
            0 -1 532 -5.6377873988822103e-04</internalNodes>
          <leafValues>
            -2.0007894933223724e-01 1.7854288220405579e-01</leafValues></_>
        <_>
          <internalNodes>
            0 -1 547 -9.7572691738605499e-03</internalNodes>
          <leafValues>
            -9.3847942352294922e-01 3.7413712590932846e-02</leafValues></_>
        <_>
          <internalNodes>
            0 -1 244 -8.5592863615602255e-04</internalNodes>
          <leafValues>
            1.8386182188987732e-01 -1.8509557843208313e-01</leafValues></_>
        <_>
          <internalNodes>
            0 -1 637 -1.3675644993782043e-02</internalNodes>
          <leafValues>
            6.4637517929077148e-01 -4.9681108444929123e-02</leafValues></_>
        <_>
          <internalNodes>
            0 -1 487 -3.2353274524211884e-02</internalNodes>
          <leafValues>
            3.5907256603240967e-01 -8.2647770643234253e-02</leafValues></_>
        <_>
          <internalNodes>
            0 -1 484 -8.2018855027854443e-04</internalNodes>
          <leafValues>
            1.9446706771850586e-01 -1.7692805826663971e-01</leafValues></_>
        <_>
          <internalNodes>
            0 -1 4 1.5207196772098541e-01</internalNodes>
          <leafValues>
            -8.8550731539726257e-02 4.7419321537017822e-01</leafValues></_>
        <_>
          <internalNodes>
            0 -1 182 1.0101844090968370e-03</internalNodes>
          <leafValues>
            -1.1603487282991409e-01 2.6676774024963379e-01</leafValues></_>
        <_>
          <internalNodes>
            0 -1 369 8.3375886082649231e-02</internalNodes>
          <leafValues>
            -3.5959076136350632e-02 8.3108621835708618e-01</leafValues></_>
        <_>
          <internalNodes>
            0 -1 3 -1.3681727647781372e-01</internalNodes>
          <leafValues>
            3.3615687489509583e-01 -8.4713585674762726e-02</leafValues></_></weakClassifiers></_>
    <!-- stage 19 -->
    <_>
      <maxWeakCount>52</maxWeakCount>
      <stageThreshold>-1.0513942241668701e+00</stageThreshold>
      <weakClassifiers>
        <_>
          <internalNodes>
            0 -1 546 3.1033116392791271e-03</internalNodes>
          <leafValues>
            -1.1043566465377808e-01 3.6600306630134583e-01</leafValues></_>
        <_>
          <internalNodes>
            0 -1 34 -8.8938996195793152e-02</internalNodes>
          <leafValues>
            2.3959310352802277e-01 -1.9125694036483765e-01</leafValues></_>
        <_>
          <internalNodes>
            0 -1 412 -4.2781565571203828e-04</internalNodes>
          <leafValues>
            2.6412609219551086e-01 -1.5133965015411377e-01</leafValues></_>
        <_>
          <internalNodes>
            0 -1 763 2.0683216862380505e-03</internalNodes>
          <leafValues>
            -1.3685880601406097e-01 3.6262843012809753e-01</leafValues></_>
        <_>
          <internalNodes>
            0 -1 764 1.7760167829692364e-03</internalNodes>
          <leafValues>
            -1.5306816995143890e-01 2.6029402017593384e-01</leafValues></_>
        <_>
          <internalNodes>
            0 -1 351 -6.3275031745433807e-02</internalNodes>
          <leafValues>
            4.2603564262390137e-01 -8.5703462362289429e-02</leafValues></_>
        <_>
          <internalNodes>
            0 -1 681 1.4939194545149803e-02</internalNodes>
          <leafValues>
